Language model created by QuickLM on Mon Sep 25 07:43:52 EDT 2017
Copyright (c) 1996-2010 Carnegie Mellon University and Alexander I. Rudnicky

The model is in standard ARPA format, designed by Doug Paul while he was at MITRE.

The code that was used to produce this language model is available in Open Source.
Please visit http://www.speech.cs.cmu.edu/tools/ for more information

The (fixed) discount mass is 0.5. The backoffs are computed using the ratio method.
This model based on a corpus of 50 sentences and 80 words

\data\
ngram 1=80
ngram 2=137
ngram 3=152

\1-grams:
-1.0674 </s> -0.3010
-1.0674 <s> -0.2622
-2.7664 AFRICA -0.3003
-2.1644 ARE -0.2943
-2.7664 B -0.3003
-2.7664 BACK -0.2973
-2.7664 BOO -0.3003
-2.7664 BRIEFING -0.2622
-1.8633 CHANNEL -0.2589
-2.7664 COME -0.3003
-2.7664 CONNECT -0.2995
-2.2893 CONTINUE -0.2988
-2.7664 DAY -0.2622
-2.7664 DOING -0.3003
-2.7664 EAST -0.3003
-2.2893 EVENTS -0.2980
-2.7664 FLASH -0.3003
-2.1644 FOR -0.2980
-2.7664 GALA -0.2950
-2.7664 GO -0.3003
-2.7664 GOSPEL -0.2950
-2.4654 HEADLINES -0.2622
-2.7664 HOME -0.2622
-2.7664 HOTSPOT -0.2622
-2.7664 I -0.3003
-2.4654 IS -0.2965
-2.7664 JAMB -0.3003
-2.4654 JAZZ -0.2950
-2.7664 KEEP -0.3003
-2.7664 LA -0.2943
-2.7664 LEAN -0.3003
-2.4654 LIGHTS -0.2622
-2.1644 LINE -0.2556
-2.7664 LOCAL -0.2950
-2.7664 MESSAGE -0.3003
-1.8633 MUSIC -0.2581
-2.7664 MY -0.3003
-2.4654 N -0.2995
-2.2893 NEXT -0.2867
-2.4654 NOW -0.2622
-2.7664 OF -0.2965
-2.4654 OFF -0.2988
-2.0674 ON -0.2965
-2.2893 PAUSE -0.2859
-2.4654 PICTURES -0.2622
-1.8633 PLAY -0.2897
-1.6872 PLAYING -0.2742
-2.2893 PREVIOUS -0.2867
-2.7664 QUIET -0.2995
-2.7664 QUIT -0.3003
-2.7664 RADIO -0.2973
-2.7664 READ -0.3003
-2.7664 RECORD -0.2943
-2.7664 RECORDING -0.2943
-2.7664 REMINDERS -0.2980
-2.7664 S -0.2622
-2.2893 SCHEDULED -0.2980
-2.4654 SHOWING -0.2995
-2.1644 SONG -0.2622
-1.7664 START -0.2905
-1.9213 STOP -0.2844
-2.7664 STREAM -0.2995
-2.7664 T -0.3003
-2.7664 THAT -0.2622
-1.9883 THE -0.2965
-2.7664 THIS -0.3003
-2.7664 TIME -0.2622
-2.4654 TO -0.2958
-2.4654 TODAY -0.2622
-2.7664 TOMORROW -0.2622
-2.2893 TURN -0.2958
-1.8122 TV -0.2556
-2.7664 V -0.2622
-1.9213 VIDEO -0.2622
-2.7664 WANT -0.2995
-2.7664 WEATHER -0.2622
-2.7664 WEEK -0.2622
-1.9883 WHAT -0.2943
-2.2893 WITH -0.2859
-2.7664 YOUTUBE -0.2958

\2-grams:
-2.0000 <s> COME 0.0000
-1.5229 <s> CONTINUE 0.0000
-2.0000 <s> GO 0.0000
-2.0000 <s> I 0.0000
-2.0000 <s> KEEP 0.0000
-2.0000 <s> MESSAGE 0.0000
-1.5229 <s> PAUSE 0.0000
-1.0969 <s> PLAY 0.0000
-2.0000 <s> QUIT 0.0000
-2.0000 <s> READ 0.0000
-2.0000 <s> RECORD 0.0000
-2.0000 <s> REMINDERS 0.0000
-1.0000 <s> START 0.0000
-1.1549 <s> STOP 0.0000
-2.0000 <s> STREAM 0.0000
-1.5229 <s> TURN 0.0000
-1.2218 <s> WHAT 0.0000
-0.3010 AFRICA RADIO 0.0000
-0.4260 ARE SCHEDULED 0.0000
-0.9031 ARE THE -0.2218
-0.3010 B S 0.0000
-0.3010 BACK ON -0.0792
-0.3010 BOO LA 0.0000
-0.3010 BRIEFING </s> -0.3010
-0.5051 CHANNEL </s> -0.3010
-0.9031 CHANNEL N 0.0000
-1.2041 CHANNEL NOW 0.0000
-0.3010 COME BACK 0.0000
-0.3010 CONNECT TO -0.1761
-0.3010 CONTINUE WITH 0.0000
-0.3010 DAY </s> -0.3010
-0.3010 DOING THAT 0.0000
-0.3010 EAST AFRICA 0.0000
-0.3010 EVENTS ARE -0.0969
-0.3010 FLASH BRIEFING 0.0000
-0.9031 FOR THIS 0.0000
-0.6021 FOR TODAY 0.0000
-0.9031 FOR TOMORROW 0.0000
-0.3010 GALA MUSIC -0.0512
-0.3010 GO HOME 0.0000
-0.3010 GOSPEL MUSIC -0.0512
-0.3010 HEADLINES </s> -0.3010
-0.3010 HOME </s> -0.3010
-0.3010 HOTSPOT </s> -0.3010
-0.3010 I WANT 0.0000
-0.3010 IS THE -0.2218
-0.3010 JAMB BOO 0.0000
-0.3010 JAZZ MUSIC 0.0000
-0.3010 KEEP QUIET 0.0000
-0.3010 LA TV -0.2218
-0.3010 LEAN GALA 0.0000
-0.3010 LIGHTS </s> -0.3010
-0.4260 LINE </s> -0.3010
-0.9031 LINE MUSIC -0.0512
-0.3010 LOCAL MUSIC -0.0512
-0.3010 MESSAGE OF 0.0000
-0.3590 MUSIC </s> -0.3010
-1.2041 MUSIC ON -0.0792
-0.3010 MY FLASH 0.0000
-0.6021 N B 0.0000
-0.6021 N T 0.0000
-0.7782 NEXT CHANNEL -0.1383
-0.7782 NEXT SONG 0.0000
-0.7782 NEXT VIDEO 0.0000
-0.3010 NOW </s> -0.3010
-0.3010 OF THE -0.2632
-0.6021 OFF JAMB 0.0000
-0.6021 OFF LIGHTS 0.0000
-1.0000 ON LIGHTS 0.0000
-0.3979 ON LINE 0.0000
-0.7782 PAUSE SONG 0.0000
-0.7782 PAUSE TV -0.1249
-0.7782 PAUSE VIDEO 0.0000
-0.3010 PICTURES </s> -0.3010
-0.7270 PLAY NEXT 0.0000
-0.7270 PLAY PREVIOUS 0.0000
-0.9031 PLAY TV -0.1249
-1.3802 PLAYING EAST 0.0000
-1.3802 PLAYING GOSPEL 0.0000
-1.3802 PLAYING JAZZ 0.0000
-1.3802 PLAYING LEAN 0.0000
-1.3802 PLAYING LOCAL 0.0000
-1.0792 PLAYING MUSIC -0.0512
-1.3802 PLAYING ON -0.0792
-1.0792 PLAYING TV -0.2218
-1.0792 PLAYING VIDEO 0.0000
-0.7782 PREVIOUS CHANNEL -0.1383
-0.7782 PREVIOUS SONG 0.0000
-0.7782 PREVIOUS VIDEO 0.0000
-0.3010 QUIET NOW 0.0000
-0.3010 QUIT DOING 0.0000
-0.3010 RADIO ON -0.0792
-0.3010 READ MY 0.0000
-0.3010 RECORD TV -0.1249
-0.3010 RECORDING TV -0.1249
-0.3010 REMINDERS FOR -0.1761
-0.3010 S </s> -0.3010
-0.3010 SCHEDULED FOR 0.0000
-0.3010 SHOWING PICTURES 0.0000
-0.3010 SONG </s> -0.3010
-0.3468 START PLAYING 0.0000
-1.3010 START SHOWING 0.0000
-0.6690 STOP PLAYING -0.1761
-1.1461 STOP RECORDING 0.0000
-1.1461 STOP SHOWING 0.0000
-1.1461 STOP THE -0.2218
-1.1461 STOP YOUTUBE 0.0000
-0.3010 STREAM JAZZ 0.0000
-0.3010 T V 0.0000
-0.3010 THAT </s> -0.3010
-1.0792 THE DAY 0.0000
-0.7782 THE HEADLINES 0.0000
-1.0792 THE HOTSPOT 0.0000
-1.0792 THE TIME 0.0000
-1.0792 THE WEATHER 0.0000
-0.3010 THIS WEEK 0.0000
-0.3010 TIME </s> -0.3010
-0.6021 TO CONNECT 0.0000
-0.6021 TO THE -0.2632
-0.3010 TODAY </s> -0.3010
-0.3010 TOMORROW </s> -0.3010
-0.4771 TURN OFF 0.0000
-0.7782 TURN ON -0.2553
-0.7782 TV </s> -0.3010
-0.4771 TV CHANNEL 0.0000
-0.3010 V </s> -0.3010
-0.3010 VIDEO </s> -0.3010
-0.3010 WANT TO -0.1761
-0.3010 WEATHER </s> -0.3010
-0.3010 WEEK </s> -0.3010
-1.0792 WHAT ARE -0.2430
-0.6021 WHAT EVENTS 0.0000
-0.7782 WHAT IS 0.0000
-0.7782 WITH SONG 0.0000
-0.7782 WITH TV -0.1249
-0.7782 WITH VIDEO 0.0000
-0.3010 YOUTUBE VIDEO 0.0000

\3-grams:
-0.3010 <s> COME BACK
-0.3010 <s> CONTINUE WITH
-0.3010 <s> GO HOME
-0.3010 <s> I WANT
-0.3010 <s> KEEP QUIET
-0.3010 <s> MESSAGE OF
-0.7782 <s> PAUSE SONG
-0.7782 <s> PAUSE TV
-0.7782 <s> PAUSE VIDEO
-0.7270 <s> PLAY NEXT
-0.7270 <s> PLAY PREVIOUS
-0.9031 <s> PLAY TV
-0.3010 <s> QUIT DOING
-0.3010 <s> READ MY
-0.3010 <s> RECORD TV
-0.3010 <s> REMINDERS FOR
-0.3468 <s> START PLAYING
-1.3010 <s> START SHOWING
-0.6690 <s> STOP PLAYING
-1.1461 <s> STOP RECORDING
-1.1461 <s> STOP SHOWING
-1.1461 <s> STOP THE
-1.1461 <s> STOP YOUTUBE
-0.3010 <s> STREAM JAZZ
-0.4771 <s> TURN OFF
-0.7782 <s> TURN ON
-1.0792 <s> WHAT ARE
-0.6021 <s> WHAT EVENTS
-0.7782 <s> WHAT IS
-0.3010 AFRICA RADIO ON
-0.3010 ARE SCHEDULED FOR
-0.3010 ARE THE HEADLINES
-0.3010 B S </s>
-0.3010 BACK ON LINE
-0.3010 BOO LA TV
-0.6021 CHANNEL N B
-0.6021 CHANNEL N T
-0.3010 CHANNEL NOW </s>
-0.3010 COME BACK ON
-0.3010 CONNECT TO THE
-0.7782 CONTINUE WITH SONG
-0.7782 CONTINUE WITH TV
-0.7782 CONTINUE WITH VIDEO
-0.3010 DOING THAT </s>
-0.3010 EAST AFRICA RADIO
-0.3010 EVENTS ARE SCHEDULED
-0.3010 FLASH BRIEFING </s>
-0.3010 FOR THIS WEEK
-0.3010 FOR TODAY </s>
-0.3010 FOR TOMORROW </s>
-0.3010 GALA MUSIC </s>
-0.3010 GO HOME </s>
-0.3010 GOSPEL MUSIC </s>
-0.3010 I WANT TO
-0.6021 IS THE TIME
-0.6021 IS THE WEATHER
-0.3010 JAMB BOO LA
-0.6021 JAZZ MUSIC </s>
-0.6021 JAZZ MUSIC ON
-0.3010 KEEP QUIET NOW
-0.3010 LA TV </s>
-0.3010 LEAN GALA MUSIC
-0.3010 LINE MUSIC </s>
-0.3010 LOCAL MUSIC </s>
-0.3010 MESSAGE OF THE
-0.3010 MUSIC ON LINE
-0.3010 MY FLASH BRIEFING
-0.3010 N B S
-0.3010 N T V
-0.3010 NEXT CHANNEL </s>
-0.3010 NEXT SONG </s>
-0.3010 NEXT VIDEO </s>
-0.3010 OF THE DAY
-0.3010 OFF JAMB BOO
-0.3010 OFF LIGHTS </s>
-0.3010 ON LIGHTS </s>
-0.4260 ON LINE </s>
-0.9031 ON LINE MUSIC
-0.3010 PAUSE SONG </s>
-0.3010 PAUSE TV CHANNEL
-0.3010 PAUSE VIDEO </s>
-0.7782 PLAY NEXT CHANNEL
-0.7782 PLAY NEXT SONG
-0.7782 PLAY NEXT VIDEO
-0.7782 PLAY PREVIOUS CHANNEL
-0.7782 PLAY PREVIOUS SONG
-0.7782 PLAY PREVIOUS VIDEO
-0.3010 PLAY TV CHANNEL
-0.3010 PLAYING EAST AFRICA
-0.3010 PLAYING GOSPEL MUSIC
-0.3010 PLAYING JAZZ MUSIC
-0.3010 PLAYING LEAN GALA
-0.3010 PLAYING LOCAL MUSIC
-0.3010 PLAYING MUSIC </s>
-0.3010 PLAYING ON LINE
-0.3010 PLAYING TV </s>
-0.3010 PLAYING VIDEO </s>
-0.3010 PREVIOUS CHANNEL </s>
-0.3010 PREVIOUS SONG </s>
-0.3010 PREVIOUS VIDEO </s>
-0.3010 QUIET NOW </s>
-0.3010 QUIT DOING THAT
-0.3010 RADIO ON LINE
-0.3010 READ MY FLASH
-0.3010 RECORD TV CHANNEL
-0.3010 RECORDING TV CHANNEL
-0.3010 REMINDERS FOR TODAY
-0.7782 SCHEDULED FOR THIS
-0.7782 SCHEDULED FOR TODAY
-0.7782 SCHEDULED FOR TOMORROW
-0.3010 SHOWING PICTURES </s>
-1.2553 START PLAYING EAST
-1.2553 START PLAYING GOSPEL
-1.2553 START PLAYING JAZZ
-1.2553 START PLAYING LEAN
-1.2553 START PLAYING LOCAL
-1.2553 START PLAYING MUSIC
-1.2553 START PLAYING ON
-1.2553 START PLAYING TV
-1.2553 START PLAYING VIDEO
-0.3010 START SHOWING PICTURES
-0.7782 STOP PLAYING MUSIC
-0.7782 STOP PLAYING TV
-0.7782 STOP PLAYING VIDEO
-0.3010 STOP RECORDING TV
-0.3010 STOP SHOWING PICTURES
-0.3010 STOP THE HEADLINES
-0.3010 STOP YOUTUBE VIDEO
-0.3010 STREAM JAZZ MUSIC
-0.3010 T V </s>
-0.3010 THE DAY </s>
-0.3010 THE HEADLINES </s>
-0.3010 THE HOTSPOT </s>
-0.3010 THE TIME </s>
-0.3010 THE WEATHER </s>
-0.3010 THIS WEEK </s>
-0.3010 TO CONNECT TO
-0.3010 TO THE HOTSPOT
-0.6021 TURN OFF JAMB
-0.6021 TURN OFF LIGHTS
-0.3010 TURN ON LIGHTS
-0.6021 TV CHANNEL </s>
-0.7782 TV CHANNEL N
-1.0792 TV CHANNEL NOW
-0.3010 WANT TO CONNECT
-0.3010 WHAT ARE THE
-0.3010 WHAT EVENTS ARE
-0.3010 WHAT IS THE
-0.3010 WITH SONG </s>
-0.3010 WITH TV CHANNEL
-0.3010 WITH VIDEO </s>
-0.3010 YOUTUBE VIDEO </s>

\end\
