Language model created by QuickLM on Sun Jul  9 14:16:45 EDT 2017
Copyright (c) 1996-2010 Carnegie Mellon University and Alexander I. Rudnicky

The model is in standard ARPA format, designed by Doug Paul while he was at MITRE.

The code that was used to produce this language model is available in Open Source.
Please visit http://www.speech.cs.cmu.edu/tools/ for more information

The (fixed) discount mass is 0.5. The backoffs are computed using the ratio method.
This model based on a corpus of 76 sentences and 92 words

\data\
ngram 1=92
ngram 2=171
ngram 3=198

\1-grams:
-1.0951 </s> -0.3010
-1.0951 <s> -0.2622
-2.9759 AFRICA -0.3006
-2.4988 APPOINTMENTS -0.2964
-1.9759 ARE -0.2899
-2.9759 B -0.3006
-2.9759 BACK -0.2983
-2.9759 BE -0.3001
-2.1308 BOO -0.2978
-2.9759 BRIEFING -0.2647
-2.9759 BUSINESS -0.2973
-2.0728 CHANNEL -0.2622
-2.9759 COME -0.3006
-2.9759 CONNECT -0.3001
-2.9759 CURRENT -0.2973
-2.6749 CURTI -0.2978
-2.3738 DAY -0.2647
-2.9759 EAST -0.3006
-2.4988 EVENTS -0.2964
-2.9759 FLASH -0.3006
-1.9345 FOR -0.2941
-2.9759 GALA -0.2964
-2.9759 GO -0.2992
-2.9759 GOSPEL -0.2964
-2.9759 HEADLINES -0.2647
-2.6749 HEY -0.2978
-2.9759 HOTSPOT -0.2647
-2.9759 I -0.3006
-2.6749 IN -0.2941
-1.9759 IS -0.2903
-2.1308 JAMB -0.2978
-2.6749 JAZZ -0.2964
-2.9759 KEEP -0.3001
-2.1308 LA -0.2586
-2.9759 LEAN -0.3006
-2.6749 LEAVE -0.2591
-2.6749 LIGHTS -0.2647
-2.2769 LINE -0.2596
-2.9759 LOCAL -0.2964
-2.6749 MAKING -0.2973
-2.6749 MESSAGE -0.2992
-1.9759 MUSIC -0.2617
-2.9759 MY -0.3006
-2.6749 N -0.3001
-2.0728 NEWS -0.2617
-2.3738 NEXT -0.2566
-2.4988 NOW -0.2647
-2.3738 OF -0.2941
-2.3738 OFF -0.2936
-2.6749 OKAY -0.2978
-2.1977 ON -0.2969
-2.4988 OUTAGES -0.2964
-2.9759 PASSWORD -0.2647
-2.1977 PAUSE -0.2880
-2.4988 PLANNED -0.2960
-1.9759 PLAY -0.2917
-1.8967 PLAYING -0.2823
-2.4988 POWER -0.2997
-2.3738 PREVIOUS -0.2566
-2.6749 QUIET -0.2632
-2.9759 RADIO -0.2983
-2.3738 READ -0.2936
-2.9759 RECORD -0.2955
-2.9759 RECORDING -0.2955
-2.9759 REMINDERS -0.2960
-2.9759 S -0.2647
-2.1977 SCHEDULED -0.2960
-2.6749 SCREEN -0.2647
-2.6749 SCRIPTURE -0.2992
-2.6749 SONG -0.2647
-2.9759 SPORTS -0.2973
-2.0216 START -0.2955
-2.3738 STOP -0.2950
-2.9759 STREAM -0.3001
-2.9759 T -0.3006
-2.6749 TAKE -0.3001
-1.7998 THE -0.2917
-2.4988 THIS -0.2997
-2.9759 TIME -0.2647
-2.6749 TO -0.2936
-2.1977 TODAY -0.2647
-2.4988 TOMORROW -0.2647
-2.2769 TURN -0.2964
-1.8967 TV -0.2606
-2.4988 UN -0.2983
-2.9759 V -0.2647
-2.1977 VIDEO -0.2647
-2.9759 WANT -0.3001
-2.9759 WEATHER -0.2647
-2.4988 WEEK -0.2647
-1.6749 WHAT -0.2875
-2.9759 WIFI -0.3006

\2-grams:
-2.1818 <s> BE 0.0000
-2.1818 <s> COME 0.0000
-1.8808 <s> CURTI 0.0000
-2.1818 <s> GO 0.0000
-1.8808 <s> HEY 0.0000
-2.1818 <s> I 0.0000
-2.1818 <s> KEEP 0.0000
-2.1818 <s> MESSAGE 0.0000
-1.8808 <s> OKAY 0.0000
-1.7047 <s> PAUSE 0.0000
-1.1818 <s> PLAY 0.0000
-1.5798 <s> READ 0.0000
-2.1818 <s> RECORD 0.0000
-2.1818 <s> REMINDERS 0.0000
-2.1818 <s> SCRIPTURE 0.0000
-1.2276 <s> START 0.0000
-1.5798 <s> STOP 0.0000
-2.1818 <s> STREAM 0.0000
-1.8808 <s> TAKE 0.0000
-1.4829 <s> TURN 0.0000
-1.7047 <s> UN 0.0000
-0.8808 <s> WHAT 0.0000
-0.3010 AFRICA RADIO 0.0000
-0.3010 APPOINTMENTS ARE -0.1461
-0.8239 ARE PLANNED 0.0000
-0.5229 ARE SCHEDULED 0.0000
-1.3010 ARE THE -0.2863
-0.3010 B S 0.0000
-0.3010 BACK ON -0.1249
-0.3010 BE QUIET -0.1761
-0.3010 BOO LA 0.0000
-0.3010 BRIEFING </s> -0.3010
-0.3010 BUSINESS NEWS -0.0969
-0.5051 CHANNEL </s> -0.3010
-0.9031 CHANNEL N 0.0000
-1.2041 CHANNEL NOW 0.0000
-0.3010 COME BACK 0.0000
-0.3010 CONNECT TO -0.1761
-0.3010 CURRENT NEWS -0.0969
-0.3010 CURTI JAMB 0.0000
-0.3010 DAY </s> -0.3010
-0.3010 EAST AFRICA 0.0000
-0.3010 EVENTS ARE -0.1461
-0.3010 FLASH BRIEFING 0.0000
-1.3424 FOR NOW 0.0000
-0.8653 FOR THIS 0.0000
-0.7404 FOR TODAY 0.0000
-0.8653 FOR TOMORROW 0.0000
-0.3010 GALA MUSIC -0.0414
-0.3010 GO OFF -0.2430
-0.3010 GOSPEL MUSIC -0.0414
-0.3010 HEADLINES </s> -0.3010
-0.3010 HEY JAMB 0.0000
-0.3010 HOTSPOT </s> -0.3010
-0.3010 I WANT 0.0000
-0.3010 IN THE -0.2553
-1.0000 IS IN 0.0000
-1.0000 IS MAKING 0.0000
-1.3010 IS MESSAGE 0.0000
-1.3010 IS SCRIPTURE 0.0000
-0.6990 IS THE -0.2389
-0.3010 JAMB BOO 0.0000
-0.3010 JAZZ MUSIC 0.0000
-0.3010 KEEP QUIET -0.1761
-0.6690 LA </s> -0.3010
-0.5441 LA TV -0.1761
-0.3010 LEAN GALA 0.0000
-0.6021 LEAVE </s> -0.3010
-0.6021 LEAVE FOR -0.2808
-0.3010 LIGHTS </s> -0.3010
-0.3979 LINE </s> -0.3010
-1.0000 LINE MUSIC -0.0414
-0.3010 LOCAL MUSIC -0.0414
-0.3010 MAKING NEWS 0.0000
-0.3010 MESSAGE OF 0.0000
-0.3468 MUSIC </s> -0.3010
-1.3010 MUSIC ON -0.1249
-0.3010 MY FLASH 0.0000
-0.6021 N B 0.0000
-0.6021 N T 0.0000
-0.4260 NEWS </s> -0.3010
-0.9031 NEWS TODAY 0.0000
-0.9031 NEXT </s> -0.3010
-0.9031 NEXT CHANNEL -0.1383
-0.9031 NEXT SONG 0.0000
-0.9031 NEXT VIDEO 0.0000
-0.3010 NOW </s> -0.3010
-0.3010 OF THE -0.2389
-0.9031 OFF JAMB 0.0000
-0.9031 OFF LIGHTS 0.0000
-0.9031 OFF LINE -0.0792
-0.9031 OFF SCREEN 0.0000
-0.3010 OKAY JAMB 0.0000
-1.0792 ON LIGHTS 0.0000
-0.4771 ON LINE 0.0000
-1.0792 ON SCREEN 0.0000
-0.3010 OUTAGES ARE -0.2304
-0.3010 PASSWORD </s> -0.3010
-0.7782 PAUSE MUSIC -0.0414
-0.7782 PAUSE TV -0.1761
-0.7782 PAUSE VIDEO 0.0000
-0.3010 PLANNED FOR -0.0378
-0.6990 PLAY NEXT 0.0000
-0.6990 PLAY PREVIOUS 0.0000
-1.0000 PLAY TV -0.1761
-1.3802 PLAYING EAST 0.0000
-1.3802 PLAYING GOSPEL 0.0000
-1.3802 PLAYING JAZZ 0.0000
-1.3802 PLAYING LEAN 0.0000
-1.3802 PLAYING LOCAL 0.0000
-1.0792 PLAYING MUSIC -0.0414
-1.3802 PLAYING ON -0.1249
-1.0792 PLAYING TV -0.1761
-1.0792 PLAYING VIDEO 0.0000
-0.3010 POWER OUTAGES 0.0000
-0.9031 PREVIOUS </s> -0.3010
-0.9031 PREVIOUS CHANNEL -0.1383
-0.9031 PREVIOUS SONG 0.0000
-0.9031 PREVIOUS VIDEO 0.0000
-0.6021 QUIET </s> -0.3010
-0.6021 QUIET NOW 0.0000
-0.3010 RADIO ON -0.1249
-0.9031 READ MY 0.0000
-0.4260 READ THE -0.2218
-0.3010 RECORD TV -0.1761
-0.3010 RECORDING TV -0.1761
-0.3010 REMINDERS FOR -0.2139
-0.3010 S </s> -0.3010
-0.3010 SCHEDULED FOR -0.0378
-0.3010 SCREEN </s> -0.3010
-0.3010 SCRIPTURE OF 0.0000
-0.3010 SONG </s> -0.3010
-0.3010 SPORTS NEWS -0.0969
-0.3010 START PLAYING 0.0000
-0.4260 STOP PLAYING -0.1761
-0.9031 STOP RECORDING 0.0000
-0.3010 STREAM JAZZ 0.0000
-0.3010 T V 0.0000
-0.3010 TAKE LEAVE 0.0000
-1.4771 THE BUSINESS 0.0000
-1.4771 THE CURRENT 0.0000
-0.8751 THE DAY 0.0000
-1.4771 THE HEADLINES 0.0000
-1.4771 THE HOTSPOT 0.0000
-1.0000 THE NEWS 0.0000
-1.4771 THE SPORTS 0.0000
-1.4771 THE TIME 0.0000
-1.4771 THE WEATHER 0.0000
-1.4771 THE WIFI 0.0000
-0.3010 THIS WEEK 0.0000
-0.3010 TIME </s> -0.3010
-0.6021 TO CONNECT 0.0000
-0.6021 TO THE -0.2863
-0.3010 TODAY </s> -0.3010
-0.3010 TOMORROW </s> -0.3010
-0.5229 TURN OFF -0.0969
-0.6990 TURN ON -0.2218
-0.6021 TV </s> -0.3010
-0.6021 TV CHANNEL 0.0000
-0.3010 UN PAUSE 0.0000
-0.3010 V </s> -0.3010
-0.3010 VIDEO </s> -0.3010
-0.3010 WANT TO -0.1761
-0.3010 WEATHER </s> -0.3010
-0.3010 WEEK </s> -0.3010
-1.1249 WHAT APPOINTMENTS 0.0000
-1.6021 WHAT ARE -0.2788
-1.1249 WHAT EVENTS 0.0000
-0.6021 WHAT IS 0.0000
-1.1249 WHAT POWER 0.0000
-0.3010 WIFI PASSWORD 0.0000

\3-grams:
-0.3010 <s> BE QUIET
-0.3010 <s> COME BACK
-0.3010 <s> CURTI JAMB
-0.3010 <s> GO OFF
-0.3010 <s> HEY JAMB
-0.3010 <s> I WANT
-0.3010 <s> KEEP QUIET
-0.3010 <s> MESSAGE OF
-0.3010 <s> OKAY JAMB
-0.7782 <s> PAUSE MUSIC
-0.7782 <s> PAUSE TV
-0.7782 <s> PAUSE VIDEO
-0.6990 <s> PLAY NEXT
-0.6990 <s> PLAY PREVIOUS
-1.0000 <s> PLAY TV
-0.9031 <s> READ MY
-0.4260 <s> READ THE
-0.3010 <s> RECORD TV
-0.3010 <s> REMINDERS FOR
-0.3010 <s> SCRIPTURE OF
-0.3010 <s> START PLAYING
-0.4260 <s> STOP PLAYING
-0.9031 <s> STOP RECORDING
-0.3010 <s> STREAM JAZZ
-0.3010 <s> TAKE LEAVE
-0.5229 <s> TURN OFF
-0.6990 <s> TURN ON
-0.3010 <s> UN PAUSE
-1.1249 <s> WHAT APPOINTMENTS
-1.6021 <s> WHAT ARE
-1.1249 <s> WHAT EVENTS
-0.6021 <s> WHAT IS
-1.1249 <s> WHAT POWER
-0.3010 AFRICA RADIO ON
-0.3010 APPOINTMENTS ARE SCHEDULED
-0.3010 ARE PLANNED FOR
-0.3010 ARE SCHEDULED FOR
-0.3010 ARE THE HEADLINES
-0.3010 B S </s>
-0.3010 BACK ON LINE
-0.3010 BE QUIET </s>
-0.6690 BOO LA </s>
-0.5441 BOO LA TV
-0.3010 BUSINESS NEWS </s>
-0.6021 CHANNEL N B
-0.6021 CHANNEL N T
-0.3010 CHANNEL NOW </s>
-0.3010 COME BACK ON
-0.3010 CONNECT TO THE
-0.3010 CURRENT NEWS </s>
-0.3010 CURTI JAMB BOO
-0.3010 EAST AFRICA RADIO
-0.3010 EVENTS ARE SCHEDULED
-0.3010 FLASH BRIEFING </s>
-0.3010 FOR NOW </s>
-0.3010 FOR THIS WEEK
-0.3010 FOR TODAY </s>
-0.3010 FOR TOMORROW </s>
-0.3010 GALA MUSIC </s>
-0.3010 GO OFF LINE
-0.3010 GOSPEL MUSIC </s>
-0.3010 HEY JAMB BOO
-0.3010 I WANT TO
-0.3010 IN THE NEWS
-0.3010 IS IN THE
-0.3010 IS MAKING NEWS
-0.3010 IS MESSAGE OF
-0.3010 IS SCRIPTURE OF
-0.9031 IS THE CURRENT
-0.9031 IS THE TIME
-0.9031 IS THE WEATHER
-0.9031 IS THE WIFI
-0.3010 JAMB BOO LA
-0.6021 JAZZ MUSIC </s>
-0.6021 JAZZ MUSIC ON
-0.3010 KEEP QUIET NOW
-0.3010 LA TV </s>
-0.3010 LEAN GALA MUSIC
-0.3010 LEAVE FOR NOW
-0.3010 LINE MUSIC </s>
-0.3010 LOCAL MUSIC </s>
-0.6021 MAKING NEWS </s>
-0.6021 MAKING NEWS TODAY
-0.3010 MESSAGE OF THE
-0.3010 MUSIC ON LINE
-0.3010 MY FLASH BRIEFING
-0.3010 N B S
-0.3010 N T V
-0.3010 NEWS TODAY </s>
-0.3010 NEXT CHANNEL </s>
-0.3010 NEXT SONG </s>
-0.3010 NEXT VIDEO </s>
-0.3010 OF THE DAY
-0.3010 OFF JAMB BOO
-0.3010 OFF LIGHTS </s>
-0.3010 OFF LINE </s>
-0.3010 OFF SCREEN </s>
-0.3010 OKAY JAMB BOO
-0.3010 ON LIGHTS </s>
-0.4260 ON LINE </s>
-0.9031 ON LINE MUSIC
-0.3010 ON SCREEN </s>
-0.3010 OUTAGES ARE PLANNED
-0.3010 PAUSE MUSIC </s>
-0.3010 PAUSE TV CHANNEL
-0.3010 PAUSE VIDEO </s>
-0.7782 PLANNED FOR THIS
-0.7782 PLANNED FOR TODAY
-0.7782 PLANNED FOR TOMORROW
-0.9031 PLAY NEXT </s>
-0.9031 PLAY NEXT CHANNEL
-0.9031 PLAY NEXT SONG
-0.9031 PLAY NEXT VIDEO
-0.9031 PLAY PREVIOUS </s>
-0.9031 PLAY PREVIOUS CHANNEL
-0.9031 PLAY PREVIOUS SONG
-0.9031 PLAY PREVIOUS VIDEO
-0.3010 PLAY TV CHANNEL
-0.3010 PLAYING EAST AFRICA
-0.3010 PLAYING GOSPEL MUSIC
-0.3010 PLAYING JAZZ MUSIC
-0.3010 PLAYING LEAN GALA
-0.3010 PLAYING LOCAL MUSIC
-0.3010 PLAYING MUSIC </s>
-0.3010 PLAYING ON LINE
-0.3010 PLAYING TV </s>
-0.3010 PLAYING VIDEO </s>
-0.3010 POWER OUTAGES ARE
-0.3010 PREVIOUS CHANNEL </s>
-0.3010 PREVIOUS SONG </s>
-0.3010 PREVIOUS VIDEO </s>
-0.3010 QUIET NOW </s>
-0.3010 RADIO ON LINE
-0.3010 READ MY FLASH
-0.7782 READ THE BUSINESS
-0.7782 READ THE NEWS
-0.7782 READ THE SPORTS
-0.3010 RECORD TV CHANNEL
-0.3010 RECORDING TV CHANNEL
-0.3010 REMINDERS FOR TODAY
-0.7782 SCHEDULED FOR THIS
-0.7782 SCHEDULED FOR TODAY
-0.7782 SCHEDULED FOR TOMORROW
-0.3010 SCRIPTURE OF THE
-0.3010 SPORTS NEWS </s>
-1.2553 START PLAYING EAST
-1.2553 START PLAYING GOSPEL
-1.2553 START PLAYING JAZZ
-1.2553 START PLAYING LEAN
-1.2553 START PLAYING LOCAL
-1.2553 START PLAYING MUSIC
-1.2553 START PLAYING ON
-1.2553 START PLAYING TV
-1.2553 START PLAYING VIDEO
-0.7782 STOP PLAYING MUSIC
-0.7782 STOP PLAYING TV
-0.7782 STOP PLAYING VIDEO
-0.3010 STOP RECORDING TV
-0.3010 STREAM JAZZ MUSIC
-0.3010 T V </s>
-0.6021 TAKE LEAVE </s>
-0.6021 TAKE LEAVE FOR
-0.3010 THE BUSINESS NEWS
-0.3010 THE CURRENT NEWS
-0.3010 THE DAY </s>
-0.3010 THE HEADLINES </s>
-0.3010 THE HOTSPOT </s>
-0.4771 THE NEWS </s>
-0.7782 THE NEWS TODAY
-0.3010 THE SPORTS NEWS
-0.3010 THE TIME </s>
-0.3010 THE WEATHER </s>
-0.3010 THE WIFI PASSWORD
-0.3010 THIS WEEK </s>
-0.3010 TO CONNECT TO
-0.3010 TO THE HOTSPOT
-0.7782 TURN OFF JAMB
-0.7782 TURN OFF LIGHTS
-0.7782 TURN OFF SCREEN
-0.6021 TURN ON LIGHTS
-0.6021 TURN ON SCREEN
-0.6021 TV CHANNEL </s>
-0.7782 TV CHANNEL N
-1.0792 TV CHANNEL NOW
-0.7782 UN PAUSE MUSIC
-0.7782 UN PAUSE TV
-0.7782 UN PAUSE VIDEO
-0.3010 WANT TO CONNECT
-0.3010 WHAT APPOINTMENTS ARE
-0.3010 WHAT ARE THE
-0.3010 WHAT EVENTS ARE
-1.0000 WHAT IS IN
-1.0000 WHAT IS MAKING
-1.3010 WHAT IS MESSAGE
-1.3010 WHAT IS SCRIPTURE
-0.6990 WHAT IS THE
-0.3010 WHAT POWER OUTAGES
-0.3010 WIFI PASSWORD </s>

\end\
