Language model created by QuickLM on Mon Jun 19 19:11:45 EDT 2017
Copyright (c) 1996-2010 Carnegie Mellon University and Alexander I. Rudnicky

The model is in standard ARPA format, designed by Doug Paul while he was at MITRE.

The code that was used to produce this language model is available in Open Source.
Please visit http://www.speech.cs.cmu.edu/tools/ for more information

The (fixed) discount mass is 0.5. The backoffs are computed using the ratio method.
This model based on a corpus of 50 sentences and 71 words

\data\
ngram 1=71
ngram 2=130
ngram 3=142

\1-grams:
-1.0477 </s> -0.3010
-1.0477 <s> -0.2551
-2.7466 AFRICA -0.3003
-2.2695 APPOINTMENTS -0.2568
-2.4456 ARE -0.2963
-2.7466 B -0.3003
-2.7466 BACK -0.2963
-2.7466 BE -0.2995
-2.7466 BOO -0.3003
-2.7466 BRIEFING -0.2603
-1.9685 CHANNEL -0.2560
-2.7466 COME -0.3003
-2.4456 DAY -0.2603
-2.7466 EAST -0.3003
-2.7466 FLASH -0.3003
-2.1446 FOR -0.2963
-2.7466 GALA -0.2940
-2.7466 GO -0.2979
-2.7466 GOSPEL -0.2940
-2.7466 HEADLINES -0.2603
-2.4456 IS -0.2971
-2.7466 JAMB -0.3003
-2.4456 JAZZ -0.2940
-2.7466 KEEP -0.2995
-2.7466 LA -0.2955
-2.7466 LEAN -0.3003
-2.4456 LEAVE -0.2568
-2.4456 LIGHTS -0.2603
-2.0477 LINE -0.2525
-2.7466 LOCAL -0.2940
-2.7466 MESSAGE -0.2995
-1.7924 MUSIC -0.2551
-2.2695 MY -0.2979
-2.4456 N -0.2995
-2.1446 NEXT -0.2481
-2.2695 NOW -0.2603
-2.4456 OF -0.2971
-2.1446 OFF -0.2932
-1.9685 ON -0.2940
-2.7466 OUTAGES -0.2995
-2.1446 PAUSE -0.2892
-2.7466 PLANNED -0.2603
-1.7466 PLAY -0.2892
-1.7052 PLAYING -0.2737
-2.7466 POWER -0.3003
-2.1446 PREVIOUS -0.2481
-2.4456 QUIET -0.2577
-2.7466 RADIO -0.2963
-2.4456 READ -0.2987
-2.7466 RECORD -0.2955
-2.7466 RECORDING -0.2955
-2.7466 REMINDERS -0.2979
-2.7466 S -0.2603
-2.4456 SCREEN -0.2603
-2.7466 SCRIPTURE -0.2995
-2.4456 SONG -0.2603
-1.8435 START -0.2924
-2.1446 STOP -0.2916
-2.7466 STREAM -0.2995
-2.7466 T -0.3003
-2.4456 TAKE -0.2995
-2.0477 THE -0.2971
-2.7466 TIME -0.2603
-2.2695 TODAY -0.2603
-2.0477 TURN -0.2932
-1.9015 TV -0.2551
-2.4456 UN -0.2979
-2.7466 V -0.2603
-1.9685 VIDEO -0.2603
-2.7466 WEATHER -0.2603
-2.1446 WHAT -0.2971

\2-grams:
-2.0000 <s> APPOINTMENTS -0.1249
-2.0000 <s> BE 0.0000
-2.0000 <s> COME 0.0000
-2.0000 <s> GO 0.0000
-2.0000 <s> KEEP 0.0000
-2.0000 <s> MESSAGE 0.0000
-2.0000 <s> MY -0.1249
-1.6990 <s> PAUSE 0.0000
-1.0000 <s> PLAY 0.0000
-1.6990 <s> READ 0.0000
-2.0000 <s> RECORD 0.0000
-2.0000 <s> REMINDERS 0.0000
-2.0000 <s> SCRIPTURE 0.0000
-1.0969 <s> START 0.0000
-1.3979 <s> STOP 0.0000
-2.0000 <s> STREAM 0.0000
-1.6990 <s> TAKE 0.0000
-1.3010 <s> TURN 0.0000
-1.6990 <s> UN 0.0000
-1.3979 <s> WHAT 0.0000
-0.3010 AFRICA RADIO 0.0000
-0.7782 APPOINTMENTS </s> -0.3010
-0.4771 APPOINTMENTS FOR -0.0969
-0.6021 ARE PLANNED 0.0000
-0.6021 ARE THE -0.2553
-0.3010 B S 0.0000
-0.3010 BACK ON -0.1249
-0.3010 BE QUIET -0.1761
-0.3010 BOO LA 0.0000
-0.3010 BRIEFING </s> -0.3010
-0.6021 CHANNEL </s> -0.3010
-0.7782 CHANNEL N 0.0000
-1.0792 CHANNEL NOW 0.0000
-0.3010 COME BACK 0.0000
-0.3010 DAY </s> -0.3010
-0.3010 EAST AFRICA 0.0000
-0.3010 FLASH BRIEFING 0.0000
-0.9031 FOR NOW 0.0000
-0.4260 FOR TODAY 0.0000
-0.3010 GALA MUSIC -0.0458
-0.3010 GO OFF -0.2430
-0.3010 GOSPEL MUSIC -0.0458
-0.3010 HEADLINES </s> -0.3010
-0.3010 IS THE -0.2041
-0.3010 JAMB BOO 0.0000
-0.3010 JAZZ MUSIC 0.0000
-0.3010 KEEP QUIET -0.1761
-0.3010 LA TV -0.1963
-0.3010 LEAN GALA 0.0000
-0.6021 LEAVE </s> -0.3010
-0.6021 LEAVE FOR -0.2430
-0.3010 LIGHTS </s> -0.3010
-0.3979 LINE </s> -0.3010
-1.0000 LINE MUSIC -0.0458
-0.3010 LOCAL MUSIC -0.0458
-0.3010 MESSAGE OF 0.0000
-0.3522 MUSIC </s> -0.3010
-1.2553 MUSIC ON -0.1249
-0.4771 MY APPOINTMENTS 0.0000
-0.7782 MY FLASH 0.0000
-0.6021 N B 0.0000
-0.6021 N T 0.0000
-0.9031 NEXT </s> -0.3010
-0.9031 NEXT CHANNEL -0.1761
-0.9031 NEXT SONG 0.0000
-0.9031 NEXT VIDEO 0.0000
-0.3010 NOW </s> -0.3010
-0.3010 OF THE -0.2041
-0.9031 OFF JAMB 0.0000
-0.9031 OFF LIGHTS 0.0000
-0.9031 OFF LINE -0.0792
-0.9031 OFF SCREEN 0.0000
-1.0792 ON LIGHTS 0.0000
-0.4771 ON LINE 0.0000
-1.0792 ON SCREEN 0.0000
-0.3010 OUTAGES ARE -0.1761
-0.6021 PAUSE MUSIC -0.0458
-0.6021 PAUSE VIDEO 0.0000
-0.3010 PLANNED </s> -0.3010
-0.6990 PLAY NEXT 0.0000
-0.6990 PLAY PREVIOUS 0.0000
-1.0000 PLAY TV -0.1549
-1.3424 PLAYING EAST 0.0000
-1.3424 PLAYING GOSPEL 0.0000
-1.3424 PLAYING JAZZ 0.0000
-1.3424 PLAYING LEAN 0.0000
-1.3424 PLAYING LOCAL 0.0000
-1.3424 PLAYING MUSIC -0.0458
-1.3424 PLAYING ON -0.1249
-1.0414 PLAYING TV -0.1963
-1.0414 PLAYING VIDEO 0.0000
-0.3010 POWER OUTAGES 0.0000
-0.9031 PREVIOUS </s> -0.3010
-0.9031 PREVIOUS CHANNEL -0.1761
-0.9031 PREVIOUS SONG 0.0000
-0.9031 PREVIOUS VIDEO 0.0000
-0.6021 QUIET </s> -0.3010
-0.6021 QUIET NOW 0.0000
-0.3010 RADIO ON -0.1249
-0.3010 READ MY 0.0000
-0.3010 RECORD TV -0.1549
-0.3010 RECORDING TV -0.1549
-0.3010 REMINDERS FOR -0.0969
-0.3010 S </s> -0.3010
-0.3010 SCREEN </s> -0.3010
-0.3010 SCRIPTURE OF 0.0000
-0.3010 SONG </s> -0.3010
-0.3010 START PLAYING -0.0378
-0.4260 STOP PLAYING -0.1891
-0.9031 STOP RECORDING 0.0000
-0.3010 STREAM JAZZ 0.0000
-0.3010 T V 0.0000
-0.3010 TAKE LEAVE 0.0000
-0.6990 THE DAY 0.0000
-1.0000 THE HEADLINES 0.0000
-1.0000 THE TIME 0.0000
-1.0000 THE WEATHER 0.0000
-0.3010 TIME </s> -0.3010
-0.3010 TODAY </s> -0.3010
-0.5229 TURN OFF -0.0969
-0.6990 TURN ON -0.2218
-0.6690 TV </s> -0.3010
-0.5441 TV CHANNEL 0.0000
-0.3010 UN PAUSE 0.0000
-0.3010 V </s> -0.3010
-0.3010 VIDEO </s> -0.3010
-0.3010 WEATHER </s> -0.3010
-0.9031 WHAT ARE -0.1761
-0.6021 WHAT IS 0.0000
-0.9031 WHAT POWER 0.0000

\3-grams:
-0.3010 <s> APPOINTMENTS FOR
-0.3010 <s> BE QUIET
-0.3010 <s> COME BACK
-0.3010 <s> GO OFF
-0.3010 <s> KEEP QUIET
-0.3010 <s> MESSAGE OF
-0.3010 <s> MY APPOINTMENTS
-0.6021 <s> PAUSE MUSIC
-0.6021 <s> PAUSE VIDEO
-0.6990 <s> PLAY NEXT
-0.6990 <s> PLAY PREVIOUS
-1.0000 <s> PLAY TV
-0.3010 <s> READ MY
-0.3010 <s> RECORD TV
-0.3010 <s> REMINDERS FOR
-0.3010 <s> SCRIPTURE OF
-0.3010 <s> START PLAYING
-0.4260 <s> STOP PLAYING
-0.9031 <s> STOP RECORDING
-0.3010 <s> STREAM JAZZ
-0.3010 <s> TAKE LEAVE
-0.5229 <s> TURN OFF
-0.6990 <s> TURN ON
-0.3010 <s> UN PAUSE
-0.9031 <s> WHAT ARE
-0.6021 <s> WHAT IS
-0.9031 <s> WHAT POWER
-0.3010 AFRICA RADIO ON
-0.3010 APPOINTMENTS FOR TODAY
-0.3010 ARE PLANNED </s>
-0.3010 ARE THE HEADLINES
-0.3010 B S </s>
-0.3010 BACK ON LINE
-0.3010 BE QUIET </s>
-0.3010 BOO LA TV
-0.6021 CHANNEL N B
-0.6021 CHANNEL N T
-0.3010 CHANNEL NOW </s>
-0.3010 COME BACK ON
-0.3010 EAST AFRICA RADIO
-0.3010 FLASH BRIEFING </s>
-0.3010 FOR NOW </s>
-0.3010 FOR TODAY </s>
-0.3010 GALA MUSIC </s>
-0.3010 GO OFF LINE
-0.3010 GOSPEL MUSIC </s>
-0.6021 IS THE TIME
-0.6021 IS THE WEATHER
-0.3010 JAMB BOO LA
-0.6021 JAZZ MUSIC </s>
-0.6021 JAZZ MUSIC ON
-0.3010 KEEP QUIET NOW
-0.3010 LA TV </s>
-0.3010 LEAN GALA MUSIC
-0.3010 LEAVE FOR NOW
-0.3010 LINE MUSIC </s>
-0.3010 LOCAL MUSIC </s>
-0.3010 MESSAGE OF THE
-0.3010 MUSIC ON LINE
-0.6021 MY APPOINTMENTS </s>
-0.6021 MY APPOINTMENTS FOR
-0.3010 MY FLASH BRIEFING
-0.3010 N B S
-0.3010 N T V
-0.3010 NEXT CHANNEL </s>
-0.3010 NEXT SONG </s>
-0.3010 NEXT VIDEO </s>
-0.3010 OF THE DAY
-0.3010 OFF JAMB BOO
-0.3010 OFF LIGHTS </s>
-0.3010 OFF LINE </s>
-0.3010 OFF SCREEN </s>
-0.3010 ON LIGHTS </s>
-0.4260 ON LINE </s>
-0.9031 ON LINE MUSIC
-0.3010 ON SCREEN </s>
-0.3010 OUTAGES ARE PLANNED
-0.3010 PAUSE MUSIC </s>
-0.3010 PAUSE VIDEO </s>
-0.9031 PLAY NEXT </s>
-0.9031 PLAY NEXT CHANNEL
-0.9031 PLAY NEXT SONG
-0.9031 PLAY NEXT VIDEO
-0.9031 PLAY PREVIOUS </s>
-0.9031 PLAY PREVIOUS CHANNEL
-0.9031 PLAY PREVIOUS SONG
-0.9031 PLAY PREVIOUS VIDEO
-0.3010 PLAY TV CHANNEL
-0.3010 PLAYING EAST AFRICA
-0.3010 PLAYING GOSPEL MUSIC
-0.3010 PLAYING JAZZ MUSIC
-0.3010 PLAYING LEAN GALA
-0.3010 PLAYING LOCAL MUSIC
-0.3010 PLAYING MUSIC </s>
-0.3010 PLAYING ON LINE
-0.3010 PLAYING TV </s>
-0.3010 PLAYING VIDEO </s>
-0.3010 POWER OUTAGES ARE
-0.3010 PREVIOUS CHANNEL </s>
-0.3010 PREVIOUS SONG </s>
-0.3010 PREVIOUS VIDEO </s>
-0.3010 QUIET NOW </s>
-0.3010 RADIO ON LINE
-0.6021 READ MY APPOINTMENTS
-0.6021 READ MY FLASH
-0.3010 RECORD TV CHANNEL
-0.3010 RECORDING TV CHANNEL
-0.3010 REMINDERS FOR TODAY
-0.3010 SCRIPTURE OF THE
-1.2041 START PLAYING EAST
-1.2041 START PLAYING GOSPEL
-1.2041 START PLAYING JAZZ
-1.2041 START PLAYING LEAN
-1.2041 START PLAYING LOCAL
-1.2041 START PLAYING ON
-1.2041 START PLAYING TV
-1.2041 START PLAYING VIDEO
-0.7782 STOP PLAYING MUSIC
-0.7782 STOP PLAYING TV
-0.7782 STOP PLAYING VIDEO
-0.3010 STOP RECORDING TV
-0.3010 STREAM JAZZ MUSIC
-0.3010 T V </s>
-0.6021 TAKE LEAVE </s>
-0.6021 TAKE LEAVE FOR
-0.3010 THE DAY </s>
-0.3010 THE HEADLINES </s>
-0.3010 THE TIME </s>
-0.3010 THE WEATHER </s>
-0.7782 TURN OFF JAMB
-0.7782 TURN OFF LIGHTS
-0.7782 TURN OFF SCREEN
-0.6021 TURN ON LIGHTS
-0.6021 TURN ON SCREEN
-0.9031 TV CHANNEL </s>
-0.6021 TV CHANNEL N
-0.9031 TV CHANNEL NOW
-0.6021 UN PAUSE MUSIC
-0.6021 UN PAUSE VIDEO
-0.3010 WHAT ARE THE
-0.3010 WHAT IS THE
-0.3010 WHAT POWER OUTAGES

\end\
