Language model created by QuickLM on Fri Jul 23 09:40:08 EDT 2021
Copyright (c) 1996-2010 Carnegie Mellon University and Alexander I. Rudnicky

The model is in standard ARPA format, designed by Doug Paul while he was at MITRE.

The code that was used to produce this language model is available in Open Source.
Please visit http://www.speech.cs.cmu.edu/tools/ for more information

The (fixed) discount mass is 0.5. The backoffs are computed using the ratio method.
This model based on a corpus of 85 sentences and 110 words

\data\
ngram 1=110
ngram 2=217
ngram 3=307

\1-grams:
-0.9069 </s> -0.2436
-0.9044 <s> -0.2111
-3.1348 A -0.3004
-3.1348 AFRICA -0.3001
-2.5328 ARE -0.2953
-3.1348 B -0.3007
-3.1348 BACK -0.2969
-2.8338 BALANCE -0.2436
-3.1348 BOO -0.3007
-3.1348 BRIEFING -0.2436
-2.8338 CALL -0.2425
-2.8338 CAMERA -0.2436
-2.0556 CHANNEL -0.2366
-3.1348 COME -0.3007
-3.1348 CONNECT -0.3001
-2.6577 CONTINUE -0.3001
-3.1348 CURRENT -0.2978
-2.8338 CURRENTLY -0.2436
-2.5328 DATA -0.2959
-3.1348 DAY -0.2436
-3.1348 DECREASE -0.3001
-3.1348 DOING -0.3007
-2.6577 DOWNLOAD -0.2962
-3.1348 EAST -0.3007
-2.6577 EVENTS -0.2998
-3.1348 FLASH -0.3007
-2.8338 FM -0.3001
-2.5328 FOR -0.2991
-3.1348 GALA -0.2985
-3.1348 GO -0.3007
-3.1348 GOSPEL -0.2985
-3.1348 HANG -0.3007
-2.8338 HEADLINES -0.2436
-3.1348 HOME -0.2436
-3.1348 HOTSPOT -0.2436
-2.8338 HOW -0.3004
-3.1348 I -0.3007
-3.1348 IN</S> -0.2436
-3.1348 INCREASE -0.3001
-2.5328 INTERNET -0.2998
-1.9887 IS -0.2894
-3.1348 JAMB -0.3007
-2.8338 JAZZ -0.2985
-3.1348 KEEP -0.3007
-3.1348 LA -0.2962
-3.1348 LATER -0.2436
-3.1348 LEAN -0.3007
-3.1348 LEFT -0.2436
-2.8338 LIGHTS -0.2436
-2.5328 LINE -0.2407
-2.3567 LIVE -0.2962
-2.8338 LOCAL -0.2978
-3.1348 MAKE -0.3007
-3.1348 MESSAGE -0.3007
-2.8338 MONITOR -0.2436
-2.8338 MUCH -0.2998
-2.2317 MUSIC -0.2388
-3.1348 MUTE -0.3001
-2.8338 MY -0.2994
-2.8338 N -0.3004
-2.5328 NEXT -0.2914
-2.5328 NOW -0.2436
-3.1348 OF -0.2962
-2.5328 OFF -0.2988
-2.0209 ON -0.2959
-2.5328 PAUSE -0.2865
-2.8338 PHONE -0.3004
-2.8338 PICTURES -0.2436
-2.1806 PLAY -0.2930
-1.9044 PLAYING -0.2224
-2.5328 PREVIOUS -0.2914
-3.1348 QUIET -0.2998
-3.1348 QUIT -0.3007
-2.6577 RADIO -0.2388
-3.1348 READ -0.3004
-3.1348 RECORD -0.2962
-3.1348 RECORDING -0.2962
-3.1348 REMAINING -0.2436
-3.1348 REMINDERS -0.2998
-3.1348 RESUME -0.2972
-3.1348 S -0.2436
-2.6577 SCHEDULED -0.2998
-2.8338 SCREEN -0.2436
-2.5328 SHOW -0.2972
-2.5328 SHOWING -0.2998
-2.1348 SONG -0.2322
-2.0934 START -0.2943
-2.1348 STOP -0.2871
-3.1348 STREAM -0.3004
-3.1348 T -0.3007
-3.1348 THAT -0.2436
-1.9587 THE -0.2920
-3.1348 THIS -0.3007
-2.8338 TIME -0.2432
-2.6577 TO -0.2377
-2.6577 TODAY -0.2436
-2.8338 TOMORROW -0.2436
-2.2897 TURN -0.2956
-1.9587 TV -0.2392
-3.1348 UP -0.3004
-3.1348 V -0.2436
-2.2317 VIDEO -0.2436
-2.6577 VOLUME -0.2436
-3.1348 WANT -0.3001
-2.4358 WEATHER -0.2407
-3.1348 WEEK -0.2436
-1.9307 WHAT -0.2910
-2.8338 WHATS -0.2969
-2.6577 WITH -0.2904
-2.8338 YOUTUBE -0.2985

\2-grams:
-0.6046 </s> </s> -0.3010
-0.6021 <s> <s> -0.1761
-2.5315 <s> COME 0.0000
-2.0544 <s> CONTINUE 0.0000
-2.5315 <s> DECREASE 0.0000
-2.0544 <s> DOWNLOAD 0.0000
-2.5315 <s> GO 0.0000
-2.5315 <s> HANG 0.0000
-2.2304 <s> HOW 0.0000
-2.5315 <s> I 0.0000
-2.5315 <s> INCREASE 0.0000
-2.5315 <s> KEEP 0.0000
-2.5315 <s> MAKE 0.0000
-2.5315 <s> MESSAGE 0.0000
-2.5315 <s> MUTE 0.0000
-1.9294 <s> PAUSE 0.0000
-1.5772 <s> PLAY 0.0000
-2.5315 <s> QUIT 0.0000
-2.5315 <s> READ 0.0000
-2.5315 <s> RECORD 0.0000
-2.5315 <s> REMINDERS 0.0000
-2.5315 <s> RESUME 0.0000
-1.9294 <s> SHOW 0.0000
-1.4901 <s> START 0.0000
-1.5315 <s> STOP 0.0000
-2.5315 <s> STREAM 0.0000
-1.6864 <s> TURN 0.0000
-1.3274 <s> WHAT 0.0000
-0.3010 A PHONE 0.0000
-0.3010 AFRICA RADIO -0.2218
-0.4260 ARE SCHEDULED 0.0000
-0.9031 ARE THE -0.2711
-0.3010 B S 0.0000
-0.3010 BACK ON -0.2285
-0.3010 BALANCE </s> -0.1769
-0.3010 BOO LA 0.0000
-0.3010 BRIEFING </s> -0.1769
-0.6021 CALL </s> -0.1769
-0.6021 CALL TO -0.2218
-0.3010 CAMERA </s> -0.1769
-0.6812 CHANNEL </s> -0.1769
-1.0792 CHANNEL N 0.0000
-1.3802 CHANNEL NOW 0.0000
-0.7782 CHANNEL ON -0.1871
-0.3010 COME BACK 0.0000
-0.3010 CONNECT TO -0.2218
-0.3010 CONTINUE WITH 0.0000
-0.3010 CURRENT SONG -0.1761
-0.3010 CURRENTLY </s> -0.1769
-0.6021 DATA BALANCE 0.0000
-0.6021 DATA IS -0.2688
-0.3010 DAY </s> -0.1769
-0.3010 DECREASE VOLUME 0.0000
-0.3010 DOING THAT 0.0000
-0.3010 DOWNLOAD THE -0.2553
-0.3010 EAST AFRICA 0.0000
-0.3010 EVENTS ARE -0.0969
-0.3010 FLASH BRIEFING 0.0000
-0.3010 FM RADIO -0.1249
-0.9031 FOR THIS 0.0000
-0.6021 FOR TODAY 0.0000
-0.9031 FOR TOMORROW 0.0000
-0.3010 GALA MUSIC -0.0512
-0.3010 GO HOME 0.0000
-0.3010 GOSPEL MUSIC -0.0512
-0.3010 HANG UP 0.0000
-0.3010 HEADLINES </s> -0.1769
-0.3010 HOME </s> -0.1769
-0.3010 HOTSPOT </s> -0.1769
-0.3010 HOW MUCH 0.0000
-0.3010 I WANT 0.0000
-0.3010 IN</S> </s> -0.3010
-0.3010 INCREASE VOLUME 0.0000
-0.3010 INTERNET DATA 0.0000
-1.4472 IS LEFT 0.0000
-1.4472 IS MY -0.1761
-0.9700 IS PLAYING -0.2319
-1.4472 IS REMAINING 0.0000
-0.5441 IS THE -0.1663
-0.3010 JAMB BOO 0.0000
-0.3010 JAZZ MUSIC 0.0000
-0.3010 KEEP QUIET 0.0000
-0.3010 LA TV -0.1461
-0.3010 LATER </s> -0.1769
-0.3010 LEAN GALA 0.0000
-0.3010 LEFT </s> -0.1769
-0.3010 LIGHTS </s> -0.1769
-0.4260 LINE </s> -0.1769
-0.9031 LINE MUSIC -0.0512
-0.3010 LIVE TV -0.1461
-0.6021 LOCAL MUSIC -0.0512
-0.6021 LOCAL TIME -0.1761
-0.3010 MAKE A 0.0000
-0.3010 MESSAGE OF 0.0000
-0.3010 MONITOR </s> -0.1769
-0.3010 MUCH INTERNET 0.0000
-0.3590 MUSIC </s> -0.1769
-1.2041 MUSIC ON -0.2285
-0.3010 MUTE VOLUME 0.0000
-0.6021 MY FLASH 0.0000
-0.6021 MY INTERNET 0.0000
-0.6021 N B 0.0000
-0.6021 N T 0.0000
-0.6021 NEXT CHANNEL -0.0969
-0.9031 NEXT SONG -0.1761
-0.9031 NEXT VIDEO 0.0000
-0.3010 NOW </s> -0.1769
-0.3010 OF THE -0.2863
-0.9031 OFF JAMB 0.0000
-0.9031 OFF LIGHTS 0.0000
-0.9031 OFF MONITOR 0.0000
-0.9031 OFF SCREEN 0.0000
-1.4150 ON LIGHTS 0.0000
-0.8129 ON LINE 0.0000
-0.6368 ON LIVE 0.0000
-1.4150 ON MONITOR 0.0000
-1.4150 ON SCREEN 0.0000
-0.9031 PAUSE CHANNEL -0.2218
-0.9031 PAUSE SONG -0.1761
-0.9031 PAUSE TV -0.2041
-0.9031 PAUSE VIDEO 0.0000
-0.3010 PHONE CALL 0.0000
-0.3010 PICTURES </s> -0.1769
-1.2553 PLAY FM 0.0000
-0.7782 PLAY NEXT 0.0000
-0.7782 PLAY PREVIOUS 0.0000
-0.9542 PLAY TV -0.2041
-1.2304 PLAYING </s> -0.1769
-1.5315 PLAYING CURRENTLY 0.0000
-1.5315 PLAYING EAST 0.0000
-1.5315 PLAYING GOSPEL 0.0000
-1.5315 PLAYING JAZZ 0.0000
-1.5315 PLAYING LEAN 0.0000
-1.5315 PLAYING LOCAL -0.1761
-1.2304 PLAYING MUSIC -0.0512
-1.2304 PLAYING NOW 0.0000
-1.5315 PLAYING ON -0.2285
-1.2304 PLAYING TV -0.1461
-1.2304 PLAYING VIDEO 0.0000
-0.6021 PREVIOUS CHANNEL -0.0969
-0.9031 PREVIOUS SONG -0.1761
-0.9031 PREVIOUS VIDEO 0.0000
-0.3010 QUIET NOW 0.0000
-0.3010 QUIT DOING 0.0000
-0.4771 RADIO </s> -0.1769
-0.7782 RADIO ON -0.2285
-0.3010 READ MY -0.1761
-0.3010 RECORD TV -0.2041
-0.3010 RECORDING TV -0.2041
-0.3010 REMAINING </s> -0.1769
-0.3010 REMINDERS FOR -0.1761
-0.3010 RESUME CHANNEL -0.2218
-0.3010 S </s> -0.1769
-0.3010 SCHEDULED FOR 0.0000
-0.3010 SCREEN </s> -0.1769
-0.9031 SHOW CAMERA 0.0000
-0.9031 SHOW NEXT -0.1761
-0.9031 SHOW PREVIOUS -0.1761
-0.9031 SHOW YOUTUBE 0.0000
-0.6021 SHOWING PICTURES 0.0000
-0.6021 SHOWING WHATS 0.0000
-0.6021 SONG </s> -0.1769
-0.8239 SONG IS -0.2518
-1.0000 SONG PLAYING -0.2467
-0.3882 START PLAYING -0.1120
-1.0414 START SHOWING 0.0000
-1.3010 STOP CAMERA 0.0000
-1.3010 STOP FM 0.0000
-0.8239 STOP PLAYING -0.2167
-1.3010 STOP RECORDING 0.0000
-1.0000 STOP SHOWING 0.0000
-1.3010 STOP THE -0.2711
-1.3010 STOP YOUTUBE 0.0000
-0.3010 STREAM JAZZ 0.0000
-0.3010 T V 0.0000
-0.3010 THAT </s> -0.1769
-1.4771 THE CURRENT 0.0000
-1.4771 THE DAY 0.0000
-1.1761 THE HEADLINES 0.0000
-1.4771 THE HOTSPOT 0.0000
-1.4771 THE INTERNET 0.0000
-1.4771 THE LOCAL -0.1761
-1.1761 THE SONG -0.2553
-1.4771 THE TIME -0.1761
-0.7782 THE WEATHER 0.0000
-0.3010 THIS WEEK 0.0000
-0.6021 TIME </s> -0.1769
-0.6021 TIME IN</S> 0.0000
-0.7782 TO </s> -0.1769
-0.7782 TO CONNECT 0.0000
-0.7782 TO THE -0.2863
-0.3010 TODAY </s> -0.1769
-0.3010 TOMORROW </s> -0.1769
-0.5441 TURN OFF 0.0000
-0.6690 TURN ON -0.2478
-0.5229 TV </s> -0.1769
-0.6990 TV CHANNEL -0.1249
-0.3010 UP PHONE 0.0000
-0.3010 V </s> -0.1769
-0.3010 VIDEO </s> -0.1769
-0.3010 VOLUME </s> -0.1769
-0.3010 WANT TO -0.2218
-1.0000 WEATHER </s> -0.1769
-1.0000 WEATHER CURRENTLY 0.0000
-1.0000 WEATHER LATER 0.0000
-1.0000 WEATHER TODAY 0.0000
-1.0000 WEATHER TOMORROW 0.0000
-0.3010 WEEK </s> -0.1769
-1.5051 WHAT ARE -0.2430
-1.0280 WHAT EVENTS 0.0000
-0.5509 WHAT IS -0.1326
-1.0280 WHAT SONG -0.2304
-0.3010 WHATS ON -0.1871
-0.7782 WITH SONG -0.1761
-0.7782 WITH TV -0.2041
-0.7782 WITH VIDEO 0.0000
-0.3010 YOUTUBE VIDEO 0.0000

\3-grams:
-2.2304 <s> <s> COME
-1.7533 <s> <s> CONTINUE
-2.2304 <s> <s> DECREASE
-1.7533 <s> <s> DOWNLOAD
-2.2304 <s> <s> GO
-2.2304 <s> <s> HANG
-1.9294 <s> <s> HOW
-2.2304 <s> <s> I
-2.2304 <s> <s> INCREASE
-2.2304 <s> <s> KEEP
-2.2304 <s> <s> MAKE
-2.2304 <s> <s> MESSAGE
-2.2304 <s> <s> MUTE
-1.6284 <s> <s> PAUSE
-1.2762 <s> <s> PLAY
-2.2304 <s> <s> QUIT
-2.2304 <s> <s> READ
-2.2304 <s> <s> RECORD
-2.2304 <s> <s> REMINDERS
-2.2304 <s> <s> RESUME
-1.6284 <s> <s> SHOW
-1.1891 <s> <s> START
-1.2304 <s> <s> STOP
-2.2304 <s> <s> STREAM
-1.3854 <s> <s> TURN
-1.0263 <s> <s> WHAT
-0.3010 <s> COME BACK
-0.3010 <s> CONTINUE WITH
-0.3010 <s> DECREASE VOLUME
-0.3010 <s> DOWNLOAD THE
-0.3010 <s> GO HOME
-0.3010 <s> HANG UP
-0.3010 <s> HOW MUCH
-0.3010 <s> I WANT
-0.3010 <s> INCREASE VOLUME
-0.3010 <s> KEEP QUIET
-0.3010 <s> MAKE A
-0.3010 <s> MESSAGE OF
-0.3010 <s> MUTE VOLUME
-0.9031 <s> PAUSE CHANNEL
-0.9031 <s> PAUSE SONG
-0.9031 <s> PAUSE TV
-0.9031 <s> PAUSE VIDEO
-1.2553 <s> PLAY FM
-0.7782 <s> PLAY NEXT
-0.7782 <s> PLAY PREVIOUS
-0.9542 <s> PLAY TV
-0.3010 <s> QUIT DOING
-0.3010 <s> READ MY
-0.3010 <s> RECORD TV
-0.3010 <s> REMINDERS FOR
-0.3010 <s> RESUME CHANNEL
-0.9031 <s> SHOW CAMERA
-0.9031 <s> SHOW NEXT
-0.9031 <s> SHOW PREVIOUS
-0.9031 <s> SHOW YOUTUBE
-0.3882 <s> START PLAYING
-1.0414 <s> START SHOWING
-1.3010 <s> STOP CAMERA
-1.3010 <s> STOP FM
-0.8239 <s> STOP PLAYING
-1.3010 <s> STOP RECORDING
-1.0000 <s> STOP SHOWING
-1.3010 <s> STOP THE
-1.3010 <s> STOP YOUTUBE
-0.3010 <s> STREAM JAZZ
-0.5441 <s> TURN OFF
-0.6690 <s> TURN ON
-1.5051 <s> WHAT ARE
-1.0280 <s> WHAT EVENTS
-0.5509 <s> WHAT IS
-1.0280 <s> WHAT SONG
-0.3010 A PHONE CALL
-0.3010 AFRICA RADIO ON
-0.3010 ARE SCHEDULED FOR
-0.3010 ARE THE HEADLINES
-0.3010 B S </s>
-0.3010 BACK ON LINE
-0.3010 BALANCE </s> </s>
-0.3010 BOO LA TV
-0.3010 BRIEFING </s> </s>
-0.3010 CALL </s> </s>
-0.3010 CALL TO </s>
-0.3010 CAMERA </s> </s>
-0.3010 CHANNEL </s> </s>
-0.6021 CHANNEL N B
-0.6021 CHANNEL N T
-0.3010 CHANNEL NOW </s>
-0.3010 CHANNEL ON LIVE
-0.3010 COME BACK ON
-0.3010 CONNECT TO THE
-0.7782 CONTINUE WITH SONG
-0.7782 CONTINUE WITH TV
-0.7782 CONTINUE WITH VIDEO
-0.3010 CURRENT SONG </s>
-0.3010 CURRENTLY </s> </s>
-0.3010 DATA BALANCE </s>
-0.6021 DATA IS LEFT
-0.6021 DATA IS REMAINING
-0.3010 DAY </s> </s>
-0.3010 DECREASE VOLUME </s>
-0.3010 DOING THAT </s>
-0.7782 DOWNLOAD THE CURRENT
-0.4771 DOWNLOAD THE SONG
-0.3010 EAST AFRICA RADIO
-0.3010 EVENTS ARE SCHEDULED
-0.3010 FLASH BRIEFING </s>
-0.3010 FM RADIO </s>
-0.3010 FOR THIS WEEK
-0.3010 FOR TODAY </s>
-0.3010 FOR TOMORROW </s>
-0.3010 GALA MUSIC </s>
-0.3010 GO HOME </s>
-0.3010 GOSPEL MUSIC </s>
-0.3010 HANG UP PHONE
-0.3010 HEADLINES </s> </s>
-0.3010 HOME </s> </s>
-0.3010 HOTSPOT </s> </s>
-0.3010 HOW MUCH INTERNET
-0.3010 I WANT TO
-0.3010 INCREASE VOLUME </s>
-0.6021 INTERNET DATA BALANCE
-0.6021 INTERNET DATA IS
-0.3010 IS LEFT </s>
-0.3010 IS MY INTERNET
-0.7782 IS PLAYING </s>
-0.7782 IS PLAYING CURRENTLY
-0.7782 IS PLAYING NOW
-0.3010 IS REMAINING </s>
-1.2041 IS THE INTERNET
-1.2041 IS THE LOCAL
-1.2041 IS THE TIME
-0.5051 IS THE WEATHER
-0.3010 JAMB BOO LA
-0.6021 JAZZ MUSIC </s>
-0.6021 JAZZ MUSIC ON
-0.3010 KEEP QUIET NOW
-0.3010 LA TV </s>
-0.3010 LATER </s> </s>
-0.3010 LEAN GALA MUSIC
-0.3010 LEFT </s> </s>
-0.3010 LIGHTS </s> </s>
-0.3010 LINE </s> </s>
-0.3010 LINE MUSIC </s>
-0.3010 LIVE TV </s>
-0.3010 LOCAL MUSIC </s>
-0.3010 LOCAL TIME IN</S>
-0.3010 MAKE A PHONE
-0.3010 MESSAGE OF THE
-0.3010 MONITOR </s> </s>
-0.3010 MUCH INTERNET DATA
-0.3010 MUSIC </s> </s>
-0.3010 MUSIC ON LINE
-0.3010 MUTE VOLUME </s>
-0.3010 MY FLASH BRIEFING
-0.3010 MY INTERNET DATA
-0.3010 N B S
-0.3010 N T V
-0.6021 NEXT CHANNEL </s>
-0.6021 NEXT CHANNEL ON
-0.3010 NEXT SONG </s>
-0.3010 NEXT VIDEO </s>
-0.3010 NOW </s> </s>
-0.3010 OF THE DAY
-0.3010 OFF JAMB BOO
-0.3010 OFF LIGHTS </s>
-0.3010 OFF MONITOR </s>
-0.3010 OFF SCREEN </s>
-0.3010 ON LIGHTS </s>
-0.4260 ON LINE </s>
-0.9031 ON LINE MUSIC
-0.3010 ON LIVE TV
-0.3010 ON MONITOR </s>
-0.3010 ON SCREEN </s>
-0.3010 PAUSE CHANNEL ON
-0.3010 PAUSE SONG </s>
-0.3010 PAUSE TV CHANNEL
-0.3010 PAUSE VIDEO </s>
-0.6021 PHONE CALL </s>
-0.6021 PHONE CALL TO
-0.3010 PICTURES </s> </s>
-0.3010 PLAY FM RADIO
-0.7782 PLAY NEXT CHANNEL
-0.7782 PLAY NEXT SONG
-0.7782 PLAY NEXT VIDEO
-0.7782 PLAY PREVIOUS CHANNEL
-0.7782 PLAY PREVIOUS SONG
-0.7782 PLAY PREVIOUS VIDEO
-0.3010 PLAY TV CHANNEL
-0.3010 PLAYING </s> </s>
-0.3010 PLAYING CURRENTLY </s>
-0.3010 PLAYING EAST AFRICA
-0.3010 PLAYING GOSPEL MUSIC
-0.3010 PLAYING JAZZ MUSIC
-0.3010 PLAYING LEAN GALA
-0.3010 PLAYING LOCAL MUSIC
-0.3010 PLAYING MUSIC </s>
-0.3010 PLAYING NOW </s>
-0.3010 PLAYING ON LINE
-0.3010 PLAYING TV </s>
-0.3010 PLAYING VIDEO </s>
-0.6021 PREVIOUS CHANNEL </s>
-0.6021 PREVIOUS CHANNEL ON
-0.3010 PREVIOUS SONG </s>
-0.3010 PREVIOUS VIDEO </s>
-0.3010 QUIET NOW </s>
-0.3010 QUIT DOING THAT
-0.3010 RADIO </s> </s>
-0.3010 RADIO ON LINE
-0.3010 READ MY FLASH
-0.3010 RECORD TV CHANNEL
-0.3010 RECORDING TV CHANNEL
-0.3010 REMAINING </s> </s>
-0.3010 REMINDERS FOR TODAY
-0.3010 RESUME CHANNEL ON
-0.3010 S </s> </s>
-0.7782 SCHEDULED FOR THIS
-0.7782 SCHEDULED FOR TODAY
-0.7782 SCHEDULED FOR TOMORROW
-0.3010 SCREEN </s> </s>
-0.3010 SHOW CAMERA </s>
-0.3010 SHOW NEXT CHANNEL
-0.3010 SHOW PREVIOUS CHANNEL
-0.3010 SHOW YOUTUBE VIDEO
-0.3010 SHOWING PICTURES </s>
-0.3010 SHOWING WHATS ON
-0.3010 SONG </s> </s>
-0.3010 SONG IS PLAYING
-0.6021 SONG PLAYING </s>
-0.6021 SONG PLAYING NOW
-1.2553 START PLAYING EAST
-1.2553 START PLAYING GOSPEL
-1.2553 START PLAYING JAZZ
-1.2553 START PLAYING LEAN
-1.2553 START PLAYING LOCAL
-1.2553 START PLAYING MUSIC
-1.2553 START PLAYING ON
-1.2553 START PLAYING TV
-1.2553 START PLAYING VIDEO
-0.6021 START SHOWING PICTURES
-0.6021 START SHOWING WHATS
-0.3010 STOP CAMERA </s>
-0.3010 STOP FM RADIO
-0.7782 STOP PLAYING MUSIC
-0.7782 STOP PLAYING TV
-0.7782 STOP PLAYING VIDEO
-0.3010 STOP RECORDING TV
-0.6021 STOP SHOWING PICTURES
-0.6021 STOP SHOWING WHATS
-0.3010 STOP THE HEADLINES
-0.3010 STOP YOUTUBE VIDEO
-0.3010 STREAM JAZZ MUSIC
-0.3010 T V </s>
-0.3010 THAT </s> </s>
-0.3010 THE CURRENT SONG
-0.3010 THE DAY </s>
-0.3010 THE HEADLINES </s>
-0.3010 THE HOTSPOT </s>
-0.3010 THE INTERNET DATA
-0.3010 THE LOCAL TIME
-0.3010 THE SONG PLAYING
-0.3010 THE TIME </s>
-1.0000 THE WEATHER </s>
-1.0000 THE WEATHER CURRENTLY
-1.0000 THE WEATHER LATER
-1.0000 THE WEATHER TODAY
-1.0000 THE WEATHER TOMORROW
-0.3010 THIS WEEK </s>
-0.3010 TIME </s> </s>
-0.3010 TIME IN</S> </s>
-0.3010 TO </s> </s>
-0.3010 TO CONNECT TO
-0.3010 TO THE HOTSPOT
-0.3010 TODAY </s> </s>
-0.3010 TOMORROW </s> </s>
-0.9031 TURN OFF JAMB
-0.9031 TURN OFF LIGHTS
-0.9031 TURN OFF MONITOR
-0.9031 TURN OFF SCREEN
-0.7782 TURN ON LIGHTS
-0.7782 TURN ON MONITOR
-0.7782 TURN ON SCREEN
-0.3010 TV </s> </s>
-0.6021 TV CHANNEL </s>
-0.7782 TV CHANNEL N
-1.0792 TV CHANNEL NOW
-0.3010 UP PHONE CALL
-0.3010 V </s> </s>
-0.3010 VIDEO </s> </s>
-0.3010 VOLUME </s> </s>
-0.3010 WANT TO CONNECT
-0.3010 WEATHER </s> </s>
-0.3010 WEATHER CURRENTLY </s>
-0.3010 WEATHER LATER </s>
-0.3010 WEATHER TODAY </s>
-0.3010 WEATHER TOMORROW </s>
-0.3010 WEEK </s> </s>
-0.3010 WHAT ARE THE
-0.3010 WHAT EVENTS ARE
-1.2553 WHAT IS MY
-0.3522 WHAT IS THE
-0.3010 WHAT SONG IS
-0.3010 WHATS ON LIVE
-0.3010 WITH SONG </s>
-0.3010 WITH TV CHANNEL
-0.3010 WITH VIDEO </s>
-0.3010 YOUTUBE VIDEO </s>

\end\
