Language model created by QuickLM on Thu Dec 29 05:51:36 EST 2022
Copyright (c) 1996-2010 Carnegie Mellon University and Alexander I. Rudnicky

The model is in standard ARPA format, designed by Doug Paul while he was at MITRE.

The code that was used to produce this language model is available in Open Source.
Please visit http://www.speech.cs.cmu.edu/tools/ for more information

The (fixed) discount mass is 0.5. The backoffs are computed using the ratio method.
This model based on a corpus of 118 sentences and 139 words

\data\
ngram 1=139
ngram 2=282
ngram 3=326

\1-grams:
-1.0667 </s> -0.3010
-1.0667 <s> -0.2565
-3.1386 A -0.3004
-3.1386 AFRICA -0.3001
-2.8376 ALARM -0.2621
-2.6615 ALL -0.2541
-3.1386 ALTERNATIVE -0.2937
-2.5366 ARE -0.2950
-3.1386 B -0.3007
-3.1386 BACK -0.2963
-2.8376 BALANCE -0.2621
-2.6615 BED -0.2966
-3.1386 BOO -0.3007
-3.1386 BRIEFING -0.2621
-2.8376 CALL -0.2611
-2.8376 CAMERA -0.2621
-2.0594 CHANNEL -0.2548
-3.1386 CHRISTIAN -0.2937
-3.1386 CHRISTMAS -0.2937
-3.1386 COLLECTED -0.2621
-3.1386 COME -0.3007
-3.1386 CONNECT -0.3001
-2.6615 CONTINUE -0.3001
-3.1386 COUNTRY -0.2937
-3.1386 CURRENT -0.2979
-2.8376 CURRENTLY -0.2621
-2.5366 DATA -0.2956
-3.1386 DAY -0.2621
-3.1386 DECREASE -0.2998
-3.1386 DINNER -0.2966
-3.1386 DOING -0.3007
-2.6615 DOWNLOAD -0.2960
-3.1386 EAST -0.3007
-2.6615 EVENTS -0.2998
-3.1386 FIVE -0.3007
-3.1386 FLASH -0.3007
-2.8376 FM -0.3001
-2.1386 FOR -0.2969
-2.8376 GALA -0.2937
-3.1386 GARBAGE -0.3007
-3.1386 GO -0.3007
-2.8376 GOSPEL -0.2937
-3.1386 HANG -0.2998
-2.8376 HEADLINES -0.2621
-3.1386 HOME -0.2621
-3.1386 HOTSPOT -0.2621
-2.8376 HOW -0.3004
-3.1386 I -0.3007
-3.1386 IN -0.2621
-3.1386 INCREASE -0.2998
-3.1386 INDIE -0.2937
-2.5366 INTERNET -0.2998
-1.9625 IS -0.2892
-3.1386 JAMB -0.3007
-2.6615 JAZZ -0.2937
-3.1386 KEEP -0.3007
-3.1386 LA -0.2960
-3.1386 LATER -0.2621
-2.8376 LEAN -0.3004
-3.1386 LEFT -0.2621
-2.8376 LIGHTS -0.2621
-2.5366 LINE -0.2541
-2.3605 LIVE -0.2960
-2.6615 LOCAL -0.2892
-2.8376 LOOP -0.2621
-3.1386 LUNCH -0.2966
-3.1386 MAKE -0.3007
-3.1386 MESSAGE -0.3007
-3.1386 MINUTES -0.2621
-2.8376 MONICA -0.2621
-2.8376 MONITOR -0.2621
-3.1386 MOVIE -0.2966
-2.8376 MUCH -0.2998
-1.7769 MUSIC -0.2562
-3.1386 MUTE -0.2998
-2.8376 MY -0.2994
-2.8376 N -0.3001
-2.5366 NEXT -0.2915
-2.5366 NOW -0.2621
-3.1386 OF -0.2960
-2.3605 OFF -0.2908
-1.9625 ON -0.2879
-3.1386 OUTSIDE -0.2621
-2.5366 PAUSE -0.2863
-2.8376 PHONE -0.3004
-2.8376 PICTURES -0.2621
-1.7962 PLAY -0.2859
-1.9082 PLAYING -0.2339
-3.1386 POP -0.2937
-3.1386 PRAYER -0.2966
-2.5366 PREVIOUS -0.2915
-3.1386 QUIET -0.2998
-3.1386 QUIT -0.3007
-2.6615 RADIO -0.2569
-3.1386 RAP -0.2937
-3.1386 READ -0.3004
-3.1386 RECORD -0.2960
-3.1386 RECORDING -0.2960
-3.1386 REMAINING -0.2621
-3.1386 REMINDERS -0.2979
-3.1386 RESET -0.2998
-3.1386 RESUME -0.2972
-3.1386 S -0.2621
-2.6615 SCHEDULED -0.2979
-2.8376 SCREEN -0.2621
-2.8376 SECURITY -0.3004
-2.5366 SHOW -0.2972
-2.5366 SHOWING -0.2998
-2.1386 SONG -0.2509
-3.1386 SOUL -0.2937
-2.0972 START -0.2944
-2.1386 STOP -0.2869
-3.1386 STREAM -0.3001
-2.8376 T -0.3004
-3.1386 TEMPERATURE -0.3007
-3.1386 THAT -0.2621
-1.9345 THE -0.2876
-3.1386 THIS -0.3007
-1.9925 TIME -0.2583
-3.1386 TIMER -0.3007
-2.6615 TO -0.2562
-2.6615 TODAY -0.2621
-2.8376 TOMORROW -0.2621
-2.0972 TURN -0.2944
-1.9345 TV -0.2530
-2.5366 UP -0.2960
-2.8376 V -0.2572
-2.2355 VIDEO -0.2621
-2.5366 VOLUME -0.2621
-2.6615 WAKE -0.2998
-3.1386 WANT -0.3001
-3.1386 WAS -0.3007
-2.4396 WEATHER -0.2593
-3.1386 WEEK -0.2621
-1.9082 WHAT -0.2908
-2.8376 WHATS -0.2963
-2.6615 WITH -0.2902
-2.8376 YOUTUBE -0.2985
-2.8376 ZIK -0.2621

\2-grams:
-1.8958 <s> BED 0.0000
-2.3729 <s> COME 0.0000
-1.8958 <s> CONTINUE 0.0000
-2.3729 <s> DECREASE 0.0000
-2.3729 <s> DINNER 0.0000
-1.8958 <s> DOWNLOAD 0.0000
-2.3729 <s> GARBAGE 0.0000
-2.3729 <s> GO 0.0000
-2.3729 <s> HANG 0.0000
-2.0719 <s> HOW 0.0000
-2.3729 <s> I 0.0000
-2.3729 <s> INCREASE 0.0000
-2.3729 <s> KEEP 0.0000
-2.3729 <s> LUNCH 0.0000
-2.3729 <s> MAKE 0.0000
-2.3729 <s> MESSAGE 0.0000
-2.3729 <s> MOVIE 0.0000
-2.3729 <s> MUTE 0.0000
-1.7709 <s> PAUSE 0.0000
-1.0305 <s> PLAY -0.0000
-2.3729 <s> PRAYER 0.0000
-2.3729 <s> QUIT 0.0000
-2.3729 <s> READ 0.0000
-2.3729 <s> RECORD 0.0000
-2.3729 <s> REMINDERS 0.0000
-2.3729 <s> RESET 0.0000
-2.3729 <s> RESUME 0.0000
-1.7709 <s> SHOW 0.0000
-1.3315 <s> START 0.0000
-1.3729 <s> STOP 0.0000
-2.3729 <s> STREAM 0.0000
-2.3729 <s> T 0.0000
-2.3729 <s> TIMER 0.0000
-1.3315 <s> TURN 0.0000
-2.3729 <s> TV -0.2872
-1.8958 <s> WAKE 0.0000
-1.1425 <s> WHAT 0.0000
-0.3010 A PHONE 0.0000
-0.3010 AFRICA RADIO -0.2218
-0.3010 ALARM </s> -0.3010
-0.4771 ALL </s> -0.3010
-0.7782 ALL MUSIC -0.0532
-0.3010 ALTERNATIVE MUSIC -0.0532
-0.4260 ARE SCHEDULED 0.0000
-0.9031 ARE THE -0.2730
-0.3010 B S 0.0000
-0.3010 BACK ON -0.2389
-0.3010 BALANCE </s> -0.3010
-0.3010 BED TIME -0.1963
-0.3010 BOO LA 0.0000
-0.3010 BRIEFING </s> -0.3010
-0.6021 CALL </s> -0.3010
-0.6021 CALL TO -0.2218
-0.3010 CAMERA </s> -0.3010
-0.6812 CHANNEL </s> -0.3010
-1.0792 CHANNEL N 0.0000
-1.3802 CHANNEL NOW 0.0000
-0.7782 CHANNEL ON -0.2041
-0.3010 CHRISTIAN MUSIC -0.0532
-0.3010 CHRISTMAS MUSIC -0.0532
-0.3010 COLLECTED </s> -0.3010
-0.3010 COME BACK 0.0000
-0.3010 CONNECT TO -0.2218
-0.3010 CONTINUE WITH 0.0000
-0.3010 COUNTRY MUSIC -0.0532
-0.3010 CURRENT SONG -0.1761
-0.3010 CURRENTLY </s> -0.3010
-0.6021 DATA BALANCE 0.0000
-0.6021 DATA IS -0.2711
-0.3010 DAY </s> -0.3010
-0.3010 DECREASE VOLUME 0.0000
-0.3010 DINNER TIME -0.1761
-0.3010 DOING THAT 0.0000
-0.3010 DOWNLOAD THE -0.2583
-0.3010 EAST AFRICA 0.0000
-0.3010 EVENTS ARE -0.0969
-0.3010 FIVE MINUTES 0.0000
-0.3010 FLASH BRIEFING 0.0000
-0.3010 FM RADIO -0.1249
-1.0000 FOR ALL -0.1249
-1.0000 FOR MONICA 0.0000
-1.3010 FOR THIS 0.0000
-1.0000 FOR TODAY 0.0000
-1.3010 FOR TOMORROW 0.0000
-1.0000 FOR ZIK 0.0000
-0.3010 GALA MUSIC -0.0532
-0.3010 GARBAGE WAS 0.0000
-0.3010 GO HOME 0.0000
-0.3010 GOSPEL MUSIC -0.0532
-0.3010 HANG UP -0.2430
-0.3010 HEADLINES </s> -0.3010
-0.3010 HOME </s> -0.3010
-0.3010 HOTSPOT </s> -0.3010
-0.3010 HOW MUCH 0.0000
-0.3010 I WANT 0.0000
-0.3010 IN </s> -0.3010
-0.3010 INCREASE VOLUME 0.0000
-0.3010 INDIE MUSIC -0.0532
-0.3010 INTERNET DATA 0.0000
-1.4771 IS LEFT 0.0000
-1.4771 IS MY -0.1761
-1.0000 IS PLAYING -0.2319
-1.4771 IS REMAINING 0.0000
-0.5229 IS THE -0.1576
-0.3010 JAMB BOO 0.0000
-0.3010 JAZZ MUSIC -0.0362
-0.3010 KEEP QUIET 0.0000
-0.3010 LA TV -0.1576
-0.3010 LATER </s> -0.3010
-0.3010 LEAN GALA 0.0000
-0.3010 LEFT </s> -0.3010
-0.3010 LIGHTS </s> -0.3010
-0.4260 LINE </s> -0.3010
-0.9031 LINE MUSIC -0.0532
-0.3010 LIVE TV -0.1576
-0.4771 LOCAL MUSIC -0.0532
-0.7782 LOCAL TIME -0.2852
-0.3010 LOOP </s> -0.3010
-0.3010 LUNCH TIME -0.1761
-0.3010 MAKE A 0.0000
-0.3010 MESSAGE OF 0.0000
-0.3010 MINUTES </s> -0.3010
-0.3010 MONICA </s> -0.3010
-0.3010 MONITOR </s> -0.3010
-0.3010 MOVIE TIME -0.1761
-0.3010 MUCH INTERNET 0.0000
-0.3617 MUSIC </s> -0.3010
-1.3617 MUSIC LOOP 0.0000
-1.6628 MUSIC ON -0.2389
-0.3010 MUTE VOLUME 0.0000
-0.6021 MY FLASH 0.0000
-0.6021 MY INTERNET 0.0000
-0.6021 N B 0.0000
-0.6021 N T 0.0000
-0.6021 NEXT CHANNEL -0.0969
-0.9031 NEXT SONG -0.1761
-0.9031 NEXT VIDEO 0.0000
-0.3010 NOW </s> -0.3010
-0.3010 OF THE -0.2872
-1.0792 OFF JAMB 0.0000
-1.0792 OFF LIGHTS 0.0000
-1.0792 OFF MONITOR 0.0000
-1.0792 OFF MUSIC -0.2817
-1.0792 OFF SCREEN 0.0000
-1.0792 OFF SECURITY 0.0000
-1.4771 ON LIGHTS 0.0000
-0.8751 ON LINE 0.0000
-0.6990 ON LIVE 0.0000
-1.4771 ON MONITOR 0.0000
-1.4771 ON MUSIC -0.2817
-1.4771 ON SCREEN 0.0000
-1.4771 ON SECURITY 0.0000
-0.3010 OUTSIDE </s> -0.3010
-0.9031 PAUSE CHANNEL -0.2218
-0.9031 PAUSE SONG -0.1761
-0.9031 PAUSE TV -0.2109
-0.9031 PAUSE VIDEO 0.0000
-0.3010 PHONE CALL 0.0000
-0.3010 PICTURES </s> -0.3010
-1.6435 PLAY ALL -0.2218
-1.6435 PLAY ALTERNATIVE 0.0000
-1.6435 PLAY CHRISTIAN 0.0000
-1.6435 PLAY CHRISTMAS 0.0000
-1.6435 PLAY COUNTRY 0.0000
-1.6435 PLAY FM 0.0000
-1.6435 PLAY GOSPEL 0.0000
-1.6435 PLAY INDIE 0.0000
-1.6435 PLAY JAZZ 0.0000
-1.6435 PLAY LEAN 0.0000
-1.6435 PLAY LOCAL -0.1249
-1.1663 PLAY NEXT 0.0000
-1.6435 PLAY POP 0.0000
-1.1663 PLAY PREVIOUS 0.0000
-1.6435 PLAY RAP 0.0000
-1.6435 PLAY SOUL 0.0000
-1.3424 PLAY TV -0.2109
-1.2304 PLAYING </s> -0.3010
-1.5315 PLAYING CURRENTLY 0.0000
-1.5315 PLAYING EAST 0.0000
-1.5315 PLAYING GOSPEL 0.0000
-1.5315 PLAYING JAZZ 0.0000
-1.5315 PLAYING LEAN 0.0000
-1.5315 PLAYING LOCAL -0.1249
-1.2304 PLAYING MUSIC -0.0532
-1.2304 PLAYING NOW 0.0000
-1.5315 PLAYING ON -0.2389
-1.2304 PLAYING TV -0.1576
-1.2304 PLAYING VIDEO 0.0000
-0.3010 POP MUSIC -0.0532
-0.3010 PRAYER TIME -0.1761
-0.6021 PREVIOUS CHANNEL -0.0969
-0.9031 PREVIOUS SONG -0.1761
-0.9031 PREVIOUS VIDEO 0.0000
-0.3010 QUIET NOW 0.0000
-0.3010 QUIT DOING 0.0000
-0.4771 RADIO </s> -0.3010
-0.7782 RADIO ON -0.2389
-0.3010 RAP MUSIC -0.0532
-0.3010 READ MY -0.1761
-0.3010 RECORD TV -0.2109
-0.3010 RECORDING TV -0.2109
-0.3010 REMAINING </s> -0.3010
-0.3010 REMINDERS FOR -0.2553
-0.3010 RESET VOLUME 0.0000
-0.3010 RESUME CHANNEL -0.2218
-0.3010 S </s> -0.3010
-0.3010 SCHEDULED FOR -0.2041
-0.3010 SCREEN </s> -0.3010
-0.3010 SECURITY ALARM 0.0000
-0.9031 SHOW CAMERA 0.0000
-0.9031 SHOW NEXT -0.1761
-0.9031 SHOW PREVIOUS -0.1761
-0.9031 SHOW YOUTUBE 0.0000
-0.6021 SHOWING PICTURES 0.0000
-0.6021 SHOWING WHATS 0.0000
-0.6021 SONG </s> -0.3010
-0.8239 SONG IS -0.2553
-1.0000 SONG PLAYING -0.2467
-0.3010 SOUL MUSIC -0.0532
-0.3882 START PLAYING -0.1120
-1.0414 START SHOWING 0.0000
-1.3010 STOP CAMERA 0.0000
-1.3010 STOP FM 0.0000
-0.8239 STOP PLAYING -0.2167
-1.3010 STOP RECORDING 0.0000
-1.0000 STOP SHOWING 0.0000
-1.3010 STOP THE -0.2730
-1.3010 STOP YOUTUBE 0.0000
-0.3010 STREAM JAZZ 0.0000
-0.3010 T V 0.0000
-0.3010 TEMPERATURE OUTSIDE 0.0000
-0.3010 THAT </s> -0.3010
-1.5051 THE CURRENT 0.0000
-1.5051 THE DAY 0.0000
-1.2041 THE HEADLINES 0.0000
-1.5051 THE HOTSPOT 0.0000
-1.5051 THE INTERNET 0.0000
-1.5051 THE LOCAL -0.2218
-1.2041 THE SONG -0.2553
-1.5051 THE TEMPERATURE 0.0000
-1.5051 THE TIME -0.1761
-0.8062 THE WEATHER 0.0000
-0.3010 THIS WEEK 0.0000
-0.6021 TIME </s> -0.3010
-0.6690 TIME FOR -0.1461
-1.4472 TIME IN 0.0000
-0.3010 TIMER FIVE 0.0000
-0.7782 TO </s> -0.3010
-0.7782 TO CONNECT 0.0000
-0.7782 TO THE -0.2872
-0.3010 TODAY </s> -0.3010
-0.3010 TOMORROW </s> -0.3010
-0.5643 TURN OFF 0.0000
-0.6435 TURN ON -0.2218
-0.5509 TV </s> -0.3010
-0.7270 TV CHANNEL -0.1249
-1.5051 TV TIME -0.1761
-0.9031 UP PHONE 0.0000
-0.4260 UP TIME -0.1963
-0.6021 V </s> -0.3010
-0.6021 V TIME -0.1761
-0.3010 VIDEO </s> -0.3010
-0.3010 VOLUME </s> -0.3010
-0.3010 WAKE UP -0.0969
-0.3010 WANT TO -0.2218
-0.3010 WAS COLLECTED 0.0000
-1.0000 WEATHER </s> -0.3010
-1.0000 WEATHER CURRENTLY 0.0000
-1.0000 WEATHER LATER 0.0000
-1.0000 WEATHER TODAY 0.0000
-1.0000 WEATHER TOMORROW 0.0000
-0.3010 WEEK </s> -0.3010
-1.5315 WHAT ARE -0.2430
-1.0544 WHAT EVENTS 0.0000
-0.5315 WHAT IS -0.1249
-1.0544 WHAT SONG -0.2304
-0.3010 WHATS ON -0.2041
-0.7782 WITH SONG -0.1761
-0.7782 WITH TV -0.2109
-0.7782 WITH VIDEO 0.0000
-0.3010 YOUTUBE VIDEO 0.0000
-0.3010 ZIK </s> -0.3010

\3-grams:
-0.3010 <s> BED TIME
-0.3010 <s> COME BACK
-0.3010 <s> CONTINUE WITH
-0.3010 <s> DECREASE VOLUME
-0.3010 <s> DINNER TIME
-0.3010 <s> DOWNLOAD THE
-0.3010 <s> GARBAGE WAS
-0.3010 <s> GO HOME
-0.3010 <s> HANG UP
-0.3010 <s> HOW MUCH
-0.3010 <s> I WANT
-0.3010 <s> INCREASE VOLUME
-0.3010 <s> KEEP QUIET
-0.3010 <s> LUNCH TIME
-0.3010 <s> MAKE A
-0.3010 <s> MESSAGE OF
-0.3010 <s> MOVIE TIME
-0.3010 <s> MUTE VOLUME
-0.9031 <s> PAUSE CHANNEL
-0.9031 <s> PAUSE SONG
-0.9031 <s> PAUSE TV
-0.9031 <s> PAUSE VIDEO
-1.6435 <s> PLAY ALL
-1.6435 <s> PLAY ALTERNATIVE
-1.6435 <s> PLAY CHRISTIAN
-1.6435 <s> PLAY CHRISTMAS
-1.6435 <s> PLAY COUNTRY
-1.6435 <s> PLAY FM
-1.6435 <s> PLAY GOSPEL
-1.6435 <s> PLAY INDIE
-1.6435 <s> PLAY JAZZ
-1.6435 <s> PLAY LEAN
-1.6435 <s> PLAY LOCAL
-1.1663 <s> PLAY NEXT
-1.6435 <s> PLAY POP
-1.1663 <s> PLAY PREVIOUS
-1.6435 <s> PLAY RAP
-1.6435 <s> PLAY SOUL
-1.3424 <s> PLAY TV
-0.3010 <s> PRAYER TIME
-0.3010 <s> QUIT DOING
-0.3010 <s> READ MY
-0.3010 <s> RECORD TV
-0.3010 <s> REMINDERS FOR
-0.3010 <s> RESET VOLUME
-0.3010 <s> RESUME CHANNEL
-0.9031 <s> SHOW CAMERA
-0.9031 <s> SHOW NEXT
-0.9031 <s> SHOW PREVIOUS
-0.9031 <s> SHOW YOUTUBE
-0.3882 <s> START PLAYING
-1.0414 <s> START SHOWING
-1.3010 <s> STOP CAMERA
-1.3010 <s> STOP FM
-0.8239 <s> STOP PLAYING
-1.3010 <s> STOP RECORDING
-1.0000 <s> STOP SHOWING
-1.3010 <s> STOP THE
-1.3010 <s> STOP YOUTUBE
-0.3010 <s> STREAM JAZZ
-0.3010 <s> T V
-0.3010 <s> TIMER FIVE
-0.5643 <s> TURN OFF
-0.6435 <s> TURN ON
-0.3010 <s> TV TIME
-0.3010 <s> WAKE UP
-1.5315 <s> WHAT ARE
-1.0544 <s> WHAT EVENTS
-0.5315 <s> WHAT IS
-1.0544 <s> WHAT SONG
-0.3010 A PHONE CALL
-0.3010 AFRICA RADIO ON
-0.3010 ALL MUSIC </s>
-0.3010 ALTERNATIVE MUSIC </s>
-0.3010 ARE SCHEDULED FOR
-0.3010 ARE THE HEADLINES
-0.3010 B S </s>
-0.3010 BACK ON LINE
-0.3010 BED TIME FOR
-0.3010 BOO LA TV
-0.3010 CALL TO </s>
-0.6021 CHANNEL N B
-0.6021 CHANNEL N T
-0.3010 CHANNEL NOW </s>
-0.3010 CHANNEL ON LIVE
-0.3010 CHRISTIAN MUSIC </s>
-0.3010 CHRISTMAS MUSIC </s>
-0.3010 COME BACK ON
-0.3010 CONNECT TO THE
-0.7782 CONTINUE WITH SONG
-0.7782 CONTINUE WITH TV
-0.7782 CONTINUE WITH VIDEO
-0.3010 COUNTRY MUSIC </s>
-0.3010 CURRENT SONG </s>
-0.3010 DATA BALANCE </s>
-0.6021 DATA IS LEFT
-0.6021 DATA IS REMAINING
-0.3010 DECREASE VOLUME </s>
-0.3010 DINNER TIME </s>
-0.3010 DOING THAT </s>
-0.7782 DOWNLOAD THE CURRENT
-0.4771 DOWNLOAD THE SONG
-0.3010 EAST AFRICA RADIO
-0.3010 EVENTS ARE SCHEDULED
-0.3010 FIVE MINUTES </s>
-0.3010 FLASH BRIEFING </s>
-0.3010 FM RADIO </s>
-0.3010 FOR ALL </s>
-0.3010 FOR MONICA </s>
-0.3010 FOR THIS WEEK
-0.3010 FOR TODAY </s>
-0.3010 FOR TOMORROW </s>
-0.3010 FOR ZIK </s>
-0.3010 GALA MUSIC </s>
-0.3010 GARBAGE WAS COLLECTED
-0.3010 GO HOME </s>
-0.3010 GOSPEL MUSIC </s>
-0.3010 HANG UP PHONE
-0.3010 HOW MUCH INTERNET
-0.3010 I WANT TO
-0.3010 INCREASE VOLUME </s>
-0.3010 INDIE MUSIC </s>
-0.6021 INTERNET DATA BALANCE
-0.6021 INTERNET DATA IS
-0.3010 IS LEFT </s>
-0.3010 IS MY INTERNET
-0.7782 IS PLAYING </s>
-0.7782 IS PLAYING CURRENTLY
-0.7782 IS PLAYING NOW
-0.3010 IS REMAINING </s>
-1.2553 IS THE INTERNET
-1.2553 IS THE LOCAL
-1.2553 IS THE TEMPERATURE
-1.2553 IS THE TIME
-0.5563 IS THE WEATHER
-0.3010 JAMB BOO LA
-0.4771 JAZZ MUSIC </s>
-0.7782 JAZZ MUSIC ON
-0.3010 KEEP QUIET NOW
-0.3010 LA TV </s>
-0.3010 LEAN GALA MUSIC
-0.3010 LINE MUSIC </s>
-0.3010 LIVE TV </s>
-0.3010 LOCAL MUSIC </s>
-0.3010 LOCAL TIME IN
-0.3010 LUNCH TIME </s>
-0.3010 MAKE A PHONE
-0.3010 MESSAGE OF THE
-0.3010 MOVIE TIME </s>
-0.3010 MUCH INTERNET DATA
-0.3010 MUSIC LOOP </s>
-0.3010 MUSIC ON LINE
-0.3010 MUTE VOLUME </s>
-0.3010 MY FLASH BRIEFING
-0.3010 MY INTERNET DATA
-0.3010 N B S
-0.3010 N T V
-0.6021 NEXT CHANNEL </s>
-0.6021 NEXT CHANNEL ON
-0.3010 NEXT SONG </s>
-0.3010 NEXT VIDEO </s>
-0.3010 OF THE DAY
-0.3010 OFF JAMB BOO
-0.3010 OFF LIGHTS </s>
-0.3010 OFF MONITOR </s>
-0.3010 OFF MUSIC LOOP
-0.3010 OFF SCREEN </s>
-0.3010 OFF SECURITY ALARM
-0.3010 ON LIGHTS </s>
-0.4260 ON LINE </s>
-0.9031 ON LINE MUSIC
-0.3010 ON LIVE TV
-0.3010 ON MONITOR </s>
-0.3010 ON MUSIC LOOP
-0.3010 ON SCREEN </s>
-0.3010 ON SECURITY ALARM
-0.3010 PAUSE CHANNEL ON
-0.3010 PAUSE SONG </s>
-0.3010 PAUSE TV CHANNEL
-0.3010 PAUSE VIDEO </s>
-0.6021 PHONE CALL </s>
-0.6021 PHONE CALL TO
-0.3010 PLAY ALL MUSIC
-0.3010 PLAY ALTERNATIVE MUSIC
-0.3010 PLAY CHRISTIAN MUSIC
-0.3010 PLAY CHRISTMAS MUSIC
-0.3010 PLAY COUNTRY MUSIC
-0.3010 PLAY FM RADIO
-0.3010 PLAY GOSPEL MUSIC
-0.3010 PLAY INDIE MUSIC
-0.3010 PLAY JAZZ MUSIC
-0.3010 PLAY LEAN GALA
-0.3010 PLAY LOCAL MUSIC
-0.7782 PLAY NEXT CHANNEL
-0.7782 PLAY NEXT SONG
-0.7782 PLAY NEXT VIDEO
-0.3010 PLAY POP MUSIC
-0.7782 PLAY PREVIOUS CHANNEL
-0.7782 PLAY PREVIOUS SONG
-0.7782 PLAY PREVIOUS VIDEO
-0.3010 PLAY RAP MUSIC
-0.3010 PLAY SOUL MUSIC
-0.3010 PLAY TV CHANNEL
-0.3010 PLAYING CURRENTLY </s>
-0.3010 PLAYING EAST AFRICA
-0.3010 PLAYING GOSPEL MUSIC
-0.3010 PLAYING JAZZ MUSIC
-0.3010 PLAYING LEAN GALA
-0.3010 PLAYING LOCAL MUSIC
-0.3010 PLAYING MUSIC </s>
-0.3010 PLAYING NOW </s>
-0.3010 PLAYING ON LINE
-0.3010 PLAYING TV </s>
-0.3010 PLAYING VIDEO </s>
-0.3010 POP MUSIC </s>
-0.3010 PRAYER TIME </s>
-0.6021 PREVIOUS CHANNEL </s>
-0.6021 PREVIOUS CHANNEL ON
-0.3010 PREVIOUS SONG </s>
-0.3010 PREVIOUS VIDEO </s>
-0.3010 QUIET NOW </s>
-0.3010 QUIT DOING THAT
-0.3010 RADIO ON LINE
-0.3010 RAP MUSIC </s>
-0.3010 READ MY FLASH
-0.3010 RECORD TV CHANNEL
-0.3010 RECORDING TV CHANNEL
-0.3010 REMINDERS FOR TODAY
-0.3010 RESET VOLUME </s>
-0.3010 RESUME CHANNEL ON
-0.7782 SCHEDULED FOR THIS
-0.7782 SCHEDULED FOR TODAY
-0.7782 SCHEDULED FOR TOMORROW
-0.3010 SECURITY ALARM </s>
-0.3010 SHOW CAMERA </s>
-0.3010 SHOW NEXT CHANNEL
-0.3010 SHOW PREVIOUS CHANNEL
-0.3010 SHOW YOUTUBE VIDEO
-0.3010 SHOWING PICTURES </s>
-0.3010 SHOWING WHATS ON
-0.3010 SONG IS PLAYING
-0.6021 SONG PLAYING </s>
-0.6021 SONG PLAYING NOW
-0.3010 SOUL MUSIC </s>
-1.2553 START PLAYING EAST
-1.2553 START PLAYING GOSPEL
-1.2553 START PLAYING JAZZ
-1.2553 START PLAYING LEAN
-1.2553 START PLAYING LOCAL
-1.2553 START PLAYING MUSIC
-1.2553 START PLAYING ON
-1.2553 START PLAYING TV
-1.2553 START PLAYING VIDEO
-0.6021 START SHOWING PICTURES
-0.6021 START SHOWING WHATS
-0.3010 STOP CAMERA </s>
-0.3010 STOP FM RADIO
-0.7782 STOP PLAYING MUSIC
-0.7782 STOP PLAYING TV
-0.7782 STOP PLAYING VIDEO
-0.3010 STOP RECORDING TV
-0.6021 STOP SHOWING PICTURES
-0.6021 STOP SHOWING WHATS
-0.3010 STOP THE HEADLINES
-0.3010 STOP YOUTUBE VIDEO
-0.3010 STREAM JAZZ MUSIC
-0.6021 T V </s>
-0.6021 T V TIME
-0.3010 TEMPERATURE OUTSIDE </s>
-0.3010 THE CURRENT SONG
-0.3010 THE DAY </s>
-0.3010 THE HEADLINES </s>
-0.3010 THE HOTSPOT </s>
-0.3010 THE INTERNET DATA
-0.3010 THE LOCAL TIME
-0.3010 THE SONG PLAYING
-0.3010 THE TEMPERATURE OUTSIDE
-0.3010 THE TIME </s>
-1.0000 THE WEATHER </s>
-1.0000 THE WEATHER CURRENTLY
-1.0000 THE WEATHER LATER
-1.0000 THE WEATHER TODAY
-1.0000 THE WEATHER TOMORROW
-0.3010 THIS WEEK </s>
-0.7782 TIME FOR ALL
-0.7782 TIME FOR MONICA
-0.7782 TIME FOR ZIK
-0.3010 TIME IN </s>
-0.3010 TIMER FIVE MINUTES
-0.3010 TO CONNECT TO
-0.3010 TO THE HOTSPOT
-1.0792 TURN OFF JAMB
-1.0792 TURN OFF LIGHTS
-1.0792 TURN OFF MONITOR
-1.0792 TURN OFF MUSIC
-1.0792 TURN OFF SCREEN
-1.0792 TURN OFF SECURITY
-1.0000 TURN ON LIGHTS
-1.0000 TURN ON MONITOR
-1.0000 TURN ON MUSIC
-1.0000 TURN ON SCREEN
-1.0000 TURN ON SECURITY
-0.6021 TV CHANNEL </s>
-0.7782 TV CHANNEL N
-1.0792 TV CHANNEL NOW
-0.3010 TV TIME </s>
-0.3010 UP PHONE CALL
-0.3010 UP TIME FOR
-0.3010 V TIME </s>
-0.3010 WAKE UP TIME
-0.3010 WANT TO CONNECT
-0.3010 WAS COLLECTED </s>
-0.3010 WEATHER CURRENTLY </s>
-0.3010 WEATHER LATER </s>
-0.3010 WEATHER TODAY </s>
-0.3010 WEATHER TOMORROW </s>
-0.3010 WHAT ARE THE
-0.3010 WHAT EVENTS ARE
-1.3010 WHAT IS MY
-0.3468 WHAT IS THE
-0.3010 WHAT SONG IS
-0.3010 WHATS ON LIVE
-0.3010 WITH SONG </s>
-0.3010 WITH TV CHANNEL
-0.3010 WITH VIDEO </s>
-0.3010 YOUTUBE VIDEO </s>

\end\
